<?xml version="1.0"?>
<opencv_storage>
<cascade>
  <stageType>BOOST</stageType>
  <featureType>HAAR</featureType>
  <height>24</height>
  <width>24</width>
  <stageParams>
    <boostType>GAB</boostType>
    <minHitRate>9.9900001287460327e-01</minHitRate>
    <maxFalseAlarm>4.0000000596046448e-01</maxFalseAlarm>
    <weightTrimRate>9.4999999999999996e-01</weightTrimRate>
    <maxDepth>1</maxDepth>
    <maxWeakCount>100</maxWeakCount></stageParams>
  <featureParams>
    <maxCatCount>0</maxCatCount>
    <featSize>1</featSize>
    <mode>BASIC</mode></featureParams>
  <stageNum>16</stageNum>
  <stages>
    <!-- stage 0 -->
    <_>
      <maxWeakCount>12</maxWeakCount>
      <stageThreshold>-1.7688382863998413e+00</stageThreshold>
      <weakClassifiers>
        <_>
          <internalNodes>
            0 -1 233 -6.9138435646891594e-03</internalNodes>
          <leafValues>
            7.6489531993865967e-01 -7.5199508666992188e-01</leafValues></_>
        <_>
          <internalNodes>
            0 -1 141 -3.9746350049972534e-01</internalNodes>
          <leafValues>
            2.4952451884746552e-01 -9.5777851343154907e-01</leafValues></_>
        <_>
          <internalNodes>
            0 -1 319 6.4522698521614075e-03</internalNodes>
          <leafValues>
            -4.5054200291633606e-01 5.8813697099685669e-01</leafValues></_>
        <_>
          <internalNodes>
            0 -1 800 -4.9840137362480164e-03</internalNodes>
          <leafValues>
            6.2687021493911743e-01 -2.6004746556282043e-01</leafValues></_>
        <_>
          <internalNodes>
            0 -1 439 -1.6467520967125893e-02</internalNodes>
          <leafValues>
            7.6195925474166870e-01 -1.5814854204654694e-01</leafValues></_>
        <_>
          <internalNodes>
            0 -1 37 3.7272237241268158e-02</internalNodes>
          <leafValues>
            -1.5000952780246735e-01 7.9460847377777100e-01</leafValues></_>
        <_>
          <internalNodes>
            0 -1 491 2.6214752346277237e-02</internalNodes>
          <leafValues>
            -1.8520367145538330e-01 5.6462794542312622e-01</leafValues></_>
        <_>
          <internalNodes>
            0 -1 662 9.2483917251229286e-04</internalNodes>
          <leafValues>
            -1.3063831627368927e-01 6.2012034654617310e-01</leafValues></_>
        <_>
          <internalNodes>
            0 -1 178 -1.5178128378465772e-03</internalNodes>
          <leafValues>
            6.2833446264266968e-01 -9.2449530959129333e-02</leafValues></_>
        <_>
          <internalNodes>
            0 -1 375 -5.2389474585652351e-03</internalNodes>
          <leafValues>
            6.1730039119720459e-01 -1.2766098976135254e-01</leafValues></_>
        <_>
          <internalNodes>
            0 -1 148 1.3596259988844395e-02</internalNodes>
          <leafValues>
            -1.7556580901145935e-01 4.7798189520835876e-01</leafValues></_>
        <_>
          <internalNodes>
            0 -1 804 5.6370501406490803e-03</internalNodes>
          <leafValues>
            -1.8964947760105133e-01 5.3360736370086670e-01</leafValues></_></weakClassifiers></_>
    <!-- stage 1 -->
    <_>
      <maxWeakCount>22</maxWeakCount>
      <stageThreshold>-1.5934342145919800e+00</stageThreshold>
      <weakClassifiers>
        <_>
          <internalNodes>
            0 -1 115 -5.4245773702859879e-02</internalNodes>
          <leafValues>
            4.5762711763381958e-01 -6.5396624803543091e-01</leafValues></_>
        <_>
          <internalNodes>
            0 -1 59 7.1514053270220757e-03</internalNodes>
          <leafValues>
            -4.4757890701293945e-01 5.1752495765686035e-01</leafValues></_>
        <_>
          <internalNodes>
            0 -1 280 3.2545253634452820e-02</internalNodes>
          <leafValues>
            -2.3165938258171082e-01 6.0709077119827271e-01</leafValues></_>
        <_>
          <internalNodes>
            0 -1 337 6.4021416008472443e-02</internalNodes>
          <leafValues>
            -2.5769191980361938e-01 5.3692376613616943e-01</leafValues></_>
        <_>
          <internalNodes>
            0 -1 796 -7.1727735921740532e-03</internalNodes>
          <leafValues>
            5.2019113302230835e-01 -1.9361090660095215e-01</leafValues></_>
        <_>
          <internalNodes>
            0 -1 98 -4.3793674558401108e-03</internalNodes>
          <leafValues>
            5.5520015954971313e-01 -1.5828382968902588e-01</leafValues></_>
        <_>
          <internalNodes>
            0 -1 434 -5.7509345933794975e-03</internalNodes>
          <leafValues>
            5.0506955385208130e-01 -1.7107045650482178e-01</leafValues></_>
        <_>
          <internalNodes>
            0 -1 23 -9.8386500030755997e-03</internalNodes>
          <leafValues>
            -4.9420541524887085e-01 1.7471483349800110e-01</leafValues></_>
        <_>
          <internalNodes>
            0 -1 706 -7.6176851987838745e-02</internalNodes>
          <leafValues>
            1.2534110248088837e-01 -7.0017033815383911e-01</leafValues></_>
        <_>
          <internalNodes>
            0 -1 320 -1.2167017161846161e-01</internalNodes>
          <leafValues>
            6.0111725330352783e-01 -1.3790486752986908e-01</leafValues></_>
        <_>
          <internalNodes>
            0 -1 693 -4.8988550901412964e-02</internalNodes>
          <leafValues>
            5.0318342447280884e-01 -1.5711642801761627e-01</leafValues></_>
        <_>
          <internalNodes>
            0 -1 742 1.6769792884588242e-02</internalNodes>
          <leafValues>
            -1.8294264376163483e-01 4.7619849443435669e-01</leafValues></_>
        <_>
          <internalNodes>
            0 -1 90 1.3335028663277626e-02</internalNodes>
          <leafValues>
            -2.2055430710315704e-01 3.4412339329719543e-01</leafValues></_>
        <_>
          <internalNodes>
            0 -1 412 5.6635770015418530e-03</internalNodes>
          <leafValues>
            -2.0414698123931885e-01 3.6120402812957764e-01</leafValues></_>
        <_>
          <internalNodes>
            0 -1 55 -1.1796211823821068e-02</internalNodes>
          <leafValues>
            4.8274821043014526e-01 -1.3603889942169189e-01</leafValues></_>
        <_>
          <internalNodes>
            0 -1 281 1.2380520254373550e-01</internalNodes>
          <leafValues>
            -1.2650559842586517e-01 4.6436929702758789e-01</leafValues></_>
        <_>
          <internalNodes>
            0 -1 553 -1.4539376832544804e-02</internalNodes>
          <leafValues>
            -1.2871249020099640e-01 4.9755495786666870e-01</leafValues></_>
        <_>
          <internalNodes>
            0 -1 585 -1.4315774664282799e-02</internalNodes>
          <leafValues>
            1.2817680835723877e-01 -6.2335503101348877e-01</leafValues></_>
        <_>
          <internalNodes>
            0 -1 701 -9.2448443174362183e-03</internalNodes>
          <leafValues>
            4.4233813881874084e-01 -1.6318823397159576e-01</leafValues></_>
        <_>
          <internalNodes>
            0 -1 470 -1.4791393652558327e-02</internalNodes>
          <leafValues>
            6.1362910270690918e-01 -9.1972820460796356e-02</leafValues></_>
        <_>
          <internalNodes>
            0 -1 127 -7.8365959227085114e-02</internalNodes>
          <leafValues>
            -3.5989382863044739e-01 1.8204854428768158e-01</leafValues></_>
        <_>
          <internalNodes>
            0 -1 234 -1.7753654718399048e-01</internalNodes>
          <leafValues>
            9.2139184474945068e-01 -7.0552088320255280e-02</leafValues></_></weakClassifiers></_>
    <!-- stage 2 -->
    <_>
      <maxWeakCount>27</maxWeakCount>
      <stageThreshold>-1.4800240993499756e+00</stageThreshold>
      <weakClassifiers>
        <_>
          <internalNodes>
            0 -1 310 -8.1780236214399338e-03</internalNodes>
          <leafValues>
            2.7112230658531189e-01 -6.6231983900070190e-01</leafValues></_>
        <_>
          <internalNodes>
            0 -1 283 9.6721574664115906e-03</internalNodes>
          <leafValues>
            -4.0787112712860107e-01 4.3703329563140869e-01</leafValues></_>
        <_>
          <internalNodes>
            0 -1 47 6.5035209059715271e-02</internalNodes>
          <leafValues>
            -2.2747328877449036e-01 4.7614383697509766e-01</leafValues></_>
        <_>
          <internalNodes>
            0 -1 738 -3.5174709558486938e-01</internalNodes>
          <leafValues>
            -5.3561288118362427e-01 1.5323078632354736e-01</leafValues></_>
        <_>
          <internalNodes>
            0 -1 803 -6.2415665015578270e-03</internalNodes>
          <leafValues>
            3.8653692603111267e-01 -1.6439718008041382e-01</leafValues></_>
        <_>
          <internalNodes>
            0 -1 79 -3.2078910619020462e-02</internalNodes>
          <leafValues>
            5.8561950922012329e-01 -1.5912082791328430e-01</leafValues></_>
        <_>
          <internalNodes>
            0 -1 588 -3.3596307039260864e-03</internalNodes>
          <leafValues>
            7.1003460884094238e-01 -9.6891112625598907e-02</leafValues></_>
        <_>
          <internalNodes>
            0 -1 220 -9.8159708082675934e-02</internalNodes>
          <leafValues>
            4.4359159469604492e-01 -1.4945302903652191e-01</leafValues></_>
        <_>
          <internalNodes>
            0 -1 563 2.3087097331881523e-02</internalNodes>
          <leafValues>
            -1.5760435163974762e-01 4.6747657656669617e-01</leafValues></_>
        <_>
          <internalNodes>
            0 -1 415 -2.1083500236272812e-02</internalNodes>
          <leafValues>
            3.9799326658248901e-01 -1.4543734490871429e-01</leafValues></_>
        <_>
          <internalNodes>
            0 -1 773 -5.4243437945842743e-02</internalNodes>
          <leafValues>
            8.5472017526626587e-02 -7.5739091634750366e-01</leafValues></_>
        <_>
          <internalNodes>
            0 -1 407 -2.0593512803316116e-02</internalNodes>
          <leafValues>
            -8.7639605998992920e-01 4.5641180127859116e-02</leafValues></_>
        <_>
          <internalNodes>
            0 -1 424 4.3579805642366409e-03</internalNodes>
          <leafValues>
            1.0541334748268127e-01 -4.3351003527641296e-01</leafValues></_>
        <_>
          <internalNodes>
            0 -1 92 2.4442626163363457e-03</internalNodes>
          <leafValues>
            -1.6563853621482849e-01 3.4283438324928284e-01</leafValues></_>
        <_>
          <internalNodes>
            0 -1 595 1.3661545235663652e-03</internalNodes>
          <leafValues>
            -1.6807866096496582e-01 2.9110324382781982e-01</leafValues></_>
        <_>
          <internalNodes>
            0 -1 458 -8.1552995834499598e-04</internalNodes>
          <leafValues>
            -3.1337988376617432e-01 1.6910853981971741e-01</leafValues></_>
        <_>
          <internalNodes>
            0 -1 405 -1.1417448986321688e-03</internalNodes>
          <leafValues>
            4.9883809685707092e-01 -9.7885631024837494e-02</leafValues></_>
        <_>
          <internalNodes>
            0 -1 230 8.5532562807202339e-03</internalNodes>
          <leafValues>
            -1.3835313916206360e-01 3.5832846164703369e-01</leafValues></_>
        <_>
          <internalNodes>
            0 -1 679 5.2482187747955322e-03</internalNodes>
          <leafValues>
            -1.0357344150543213e-01 4.2613086104393005e-01</leafValues></_>
        <_>
          <internalNodes>
            0 -1 746 2.4050969630479813e-02</internalNodes>
          <leafValues>
            -7.5470671057701111e-02 5.8369499444961548e-01</leafValues></_>
        <_>
          <internalNodes>
            0 -1 132 1.1061225831508636e-01</internalNodes>
          <leafValues>
            -8.7240748107433319e-02 5.3556537628173828e-01</leafValues></_>
        <_>
          <internalNodes>
            0 -1 602 -1.7033107578754425e-02</internalNodes>
          <leafValues>
            3.9896416664123535e-01 -1.3086988031864166e-01</leafValues></_>
        <_>
          <internalNodes>
            0 -1 550 -1.0511497384868562e-04</internalNodes>
          <leafValues>
            -2.6515808701515198e-01 1.8044519424438477e-01</leafValues></_>
        <_>
          <internalNodes>
            0 -1 278 -8.4425494074821472e-02</internalNodes>
          <leafValues>
            4.0786164999008179e-01 -1.1318987607955933e-01</leafValues></_>
        <_>
          <internalNodes>
            0 -1 708 -2.5526715035084635e-05</internalNodes>
          <leafValues>
            2.0292839407920837e-01 -2.4748589098453522e-01</leafValues></_>
        <_>
          <internalNodes>
            0 -1 518 7.1135803591459990e-04</internalNodes>
          <leafValues>
            1.6358271241188049e-01 -3.1334069371223450e-01</leafValues></_>
        <_>
          <internalNodes>
            0 -1 33 -8.8891750201582909e-03</internalNodes>
          <leafValues>
            -3.1981697678565979e-01 1.5291963517665863e-01</leafValues></_></weakClassifiers></_>
    <!-- stage 3 -->
    <_>
      <maxWeakCount>39</maxWeakCount>
      <stageThreshold>-1.6022655963897705e+00</stageThreshold>
      <weakClassifiers>
        <_>
          <internalNodes>
            0 -1 135 3.3468402922153473e-02</internalNodes>
          <leafValues>
            -6.2447255849838257e-01 1.6666667163372040e-01</leafValues></_>
        <_>
          <internalNodes>
            0 -1 776 -1.5323816798627377e-02</internalNodes>
          <leafValues>
            4.0240353345870972e-01 -3.5086804628372192e-01</leafValues></_>
        <_>
          <internalNodes>
            0 -1 5 1.0630398057401180e-02</internalNodes>
          <leafValues>
            -2.5098505616188049e-01 3.5804691910743713e-01</leafValues></_>
        <_>
          <internalNodes>
            0 -1 308 -2.8773820959031582e-03</internalNodes>
          <leafValues>
            3.2202240824699402e-01 -1.8663537502288818e-01</leafValues></_>
        <_>
          <internalNodes>
            0 -1 49 -1.1405020952224731e-01</internalNodes>
          <leafValues>
            5.1337623596191406e-01 -1.1420725286006927e-01</leafValues></_>
        <_>
          <internalNodes>
            0 -1 808 -6.2808375805616379e-03</internalNodes>
          <leafValues>
            4.4763764739036560e-01 -1.2932384014129639e-01</leafValues></_>
        <_>
          <internalNodes>
            0 -1 760 -1.1953261494636536e-01</internalNodes>
          <leafValues>
            -3.9877310395240784e-01 1.7498607933521271e-01</leafValues></_>
        <_>
          <internalNodes>
            0 -1 597 4.6186108374968171e-04</internalNodes>
          <leafValues>
            1.1099147796630859e-01 -3.5057654976844788e-01</leafValues></_>
        <_>
          <internalNodes>
            0 -1 304 -3.9380308240652084e-02</internalNodes>
          <leafValues>
            3.4221097826957703e-01 -1.3718019425868988e-01</leafValues></_>
        <_>
          <internalNodes>
            0 -1 103 -1.8373032798990607e-03</internalNodes>
          <leafValues>
            4.5763319730758667e-01 -1.4758609235286713e-01</leafValues></_>
        <_>
          <internalNodes>
            0 -1 699 3.6798879504203796e-02</internalNodes>
          <leafValues>
            -6.7067854106426239e-02 4.8988354206085205e-01</leafValues></_>
        <_>
          <internalNodes>
            0 -1 139 8.2400888204574585e-03</internalNodes>
          <leafValues>
            -2.0146141946315765e-01 2.8859689831733704e-01</leafValues></_>
        <_>
          <internalNodes>
            0 -1 644 6.5075838938355446e-04</internalNodes>
          <leafValues>
            1.1352632939815521e-01 -3.5974746942520142e-01</leafValues></_>
        <_>
          <internalNodes>
            0 -1 586 -3.8309930823743343e-03</internalNodes>
          <leafValues>
            3.7824651598930359e-01 -1.1983592063188553e-01</leafValues></_>
        <_>
          <internalNodes>
            0 -1 659 2.8756204992532730e-03</internalNodes>
          <leafValues>
            -8.6562484502792358e-02 5.3200501203536987e-01</leafValues></_>
        <_>
          <internalNodes>
            0 -1 672 -1.7251406097784638e-04</internalNodes>
          <leafValues>
            -2.7657940983772278e-01 1.8528231978416443e-01</leafValues></_>
        <_>
          <internalNodes>
            0 -1 657 -1.0364390909671783e-02</internalNodes>
          <leafValues>
            3.4142464399337769e-01 -1.3698647916316986e-01</leafValues></_>
        <_>
          <internalNodes>
            0 -1 15 -2.2691369056701660e-01</internalNodes>
          <leafValues>
            9.0685732662677765e-02 -5.8012807369232178e-01</leafValues></_>
        <_>
          <internalNodes>
            0 -1 193 1.6527986526489258e-01</internalNodes>
          <leafValues>
            -1.3554935157299042e-01 3.7761914730072021e-01</leafValues></_>
        <_>
          <internalNodes>
            0 -1 297 5.6775107979774475e-02</internalNodes>
          <leafValues>
            -1.4931876957416534e-01 4.6622264385223389e-01</leafValues></_>
        <_>
          <internalNodes>
            0 -1 288 -3.5688758362084627e-04</internalNodes>
          <leafValues>
            3.2955175638198853e-01 -1.3798871636390686e-01</leafValues></_>
        <_>
          <internalNodes>
            0 -1 178 -2.2940470371395350e-03</internalNodes>
          <leafValues>
            4.6417891979217529e-01 -1.0601475089788437e-01</leafValues></_>
        <_>
          <internalNodes>
            0 -1 257 -5.0093722529709339e-04</internalNodes>
          <leafValues>
            -2.9564240574836731e-01 1.4575123786926270e-01</leafValues></_>
        <_>
          <internalNodes>
            0 -1 482 -5.6667916476726532e-02</internalNodes>
          <leafValues>
            -7.7039107680320740e-02 6.0370445251464844e-01</leafValues></_>
        <_>
          <internalNodes>
            0 -1 76 2.7070431970059872e-03</internalNodes>
          <leafValues>
            -2.1438504755496979e-01 2.2942130267620087e-01</leafValues></_>
        <_>
          <internalNodes>
            0 -1 65 -2.1237805485725403e-03</internalNodes>
          <leafValues>
            3.0686694383621216e-01 -1.5984462201595306e-01</leafValues></_>
        <_>
          <internalNodes>
            0 -1 168 -6.9895297288894653e-02</internalNodes>
          <leafValues>
            2.6963305473327637e-01 -1.6210915148258209e-01</leafValues></_>
        <_>
          <internalNodes>
            0 -1 560 -2.1263035014271736e-03</internalNodes>
          <leafValues>
            -3.2233068346977234e-01 1.4977839589118958e-01</leafValues></_>
        <_>
          <internalNodes>
            0 -1 652 5.1312027499079704e-03</internalNodes>
          <leafValues>
            -1.3072739541530609e-01 3.0270972847938538e-01</leafValues></_>
        <_>
          <internalNodes>
            0 -1 499 2.0937426015734673e-03</internalNodes>
          <leafValues>
            -1.3953223824501038e-01 2.5990608334541321e-01</leafValues></_>
        <_>
          <internalNodes>
            0 -1 588 -3.4481741022318602e-03</internalNodes>
          <leafValues>
            5.3271704912185669e-01 -7.6437309384346008e-02</leafValues></_>
        <_>
          <internalNodes>
            0 -1 430 -7.6709873974323273e-04</internalNodes>
          <leafValues>
            -2.9193657636642456e-01 1.2920321524143219e-01</leafValues></_>
        <_>
          <internalNodes>
            0 -1 428 2.5796955451369286e-03</internalNodes>
          <leafValues>
            1.6976183652877808e-01 -2.7141976356506348e-01</leafValues></_>
        <_>
          <internalNodes>
            0 -1 322 -6.1103014741092920e-04</internalNodes>
          <leafValues>
            3.7534508109092712e-01 -1.1447092890739441e-01</leafValues></_>
        <_>
          <internalNodes>
            0 -1 325 3.4241415560245514e-02</internalNodes>
          <leafValues>
            -1.2080059200525284e-01 3.6470383405685425e-01</leafValues></_>
        <_>
          <internalNodes>
            0 -1 267 -1.1211459059268236e-03</internalNodes>
          <leafValues>
            3.3181977272033691e-01 -1.2084617465734482e-01</leafValues></_>
        <_>
          <internalNodes>
            0 -1 169 1.5447867554030381e-05</internalNodes>
          <leafValues>
            -2.2552891075611115e-01 1.9434867799282074e-01</leafValues></_>
        <_>
          <internalNodes>
            0 -1 484 -1.7847777344286442e-03</internalNodes>
          <leafValues>
            -2.8467148542404175e-01 1.2106609344482422e-01</leafValues></_>
        <_>
          <internalNodes>
            0 -1 511 -2.5783325545489788e-03</internalNodes>
          <leafValues>
            -2.9035899043083191e-01 1.5393429994583130e-01</leafValues></_></weakClassifiers></_>
    <!-- stage 4 -->
    <_>
      <maxWeakCount>40</maxWeakCount>
      <stageThreshold>-1.4099795818328857e+00</stageThreshold>
      <weakClassifiers>
        <_>
          <internalNodes>
            0 -1 632 -9.7252532839775085e-02</internalNodes>
          <leafValues>
            2.2962963581085205e-01 -5.7460319995880127e-01</leafValues></_>
        <_>
          <internalNodes>
            0 -1 218 -8.4776552394032478e-03</internalNodes>
          <leafValues>
            3.2924458384513855e-01 -3.1201553344726563e-01</leafValues></_>
        <_>
          <internalNodes>
            0 -1 136 1.4560213685035706e-01</internalNodes>
          <leafValues>
            -1.6633270680904388e-01 4.6687674522399902e-01</leafValues></_>
        <_>
          <internalNodes>
            0 -1 548 1.2016183137893677e-01</internalNodes>
          <leafValues>
            -1.0194817185401917e-01 6.6813242435455322e-01</leafValues></_>
        <_>
          <internalNodes>
            0 -1 10 1.6571721434593201e-01</internalNodes>
          <leafValues>
            -1.3403311371803284e-01 3.6273548007011414e-01</leafValues></_>
        <_>
          <internalNodes>
            0 -1 331 -1.2989985942840576e-01</internalNodes>
          <leafValues>
            -7.3552355170249939e-02 6.1626952886581421e-01</leafValues></_>
        <_>
          <internalNodes>
            0 -1 810 -6.8366089835762978e-03</internalNodes>
          <leafValues>
            2.9083991050720215e-01 -1.7453505098819733e-01</leafValues></_>
        <_>
          <internalNodes>
            0 -1 269 -6.1150833964347839e-02</internalNodes>
          <leafValues>
            1.4450162649154663e-01 -5.9003794193267822e-01</leafValues></_>
        <_>
          <internalNodes>
            0 -1 682 -6.5466031432151794e-02</internalNodes>
          <leafValues>
            -4.7093564271926880e-01 6.7753531038761139e-02</leafValues></_>
        <_>
          <internalNodes>
            0 -1 703 3.2351672649383545e-02</internalNodes>
          <leafValues>
            -7.7772319316864014e-02 5.2655458450317383e-01</leafValues></_>
        <_>
          <internalNodes>
            0 -1 343 -1.1304581537842751e-02</internalNodes>
          <leafValues>
            3.8035634160041809e-01 -1.4379060268402100e-01</leafValues></_>
        <_>
          <internalNodes>
            0 -1 200 -5.1144673489034176e-04</internalNodes>
          <leafValues>
            3.5932347178459167e-01 -1.2472764402627945e-01</leafValues></_>
        <_>
          <internalNodes>
            0 -1 412 7.4644265696406364e-03</internalNodes>
          <leafValues>
            -1.4124396443367004e-01 2.8198429942131042e-01</leafValues></_>
        <_>
          <internalNodes>
            0 -1 277 -8.1734806299209595e-02</internalNodes>
          <leafValues>
            4.0756583213806152e-01 -1.2746053934097290e-01</leafValues></_>
        <_>
          <internalNodes>
            0 -1 671 -9.7335630562156439e-04</internalNodes>
          <leafValues>
            -3.6305731534957886e-01 1.2043210864067078e-01</leafValues></_>
        <_>
          <internalNodes>
            0 -1 29 -8.7906703352928162e-02</internalNodes>
          <leafValues>
            6.0022749006748199e-02 -8.0315333604812622e-01</leafValues></_>
        <_>
          <internalNodes>
            0 -1 86 3.8692053407430649e-02</internalNodes>
          <leafValues>
            -2.0227317512035370e-01 2.2336345911026001e-01</leafValues></_>
        <_>
          <internalNodes>
            0 -1 255 1.3892249763011932e-01</internalNodes>
          <leafValues>
            -1.0513115674257278e-01 4.2747908830642700e-01</leafValues></_>
        <_>
          <internalNodes>
            0 -1 645 -1.9464014098048210e-02</internalNodes>
          <leafValues>
            3.1158193945884705e-01 -1.3776418566703796e-01</leafValues></_>
        <_>
          <internalNodes>
            0 -1 663 -5.0231016939505935e-04</internalNodes>
          <leafValues>
            3.2780000567436218e-01 -1.0891489684581757e-01</leafValues></_>
        <_>
          <internalNodes>
            0 -1 241 8.0662835389375687e-03</internalNodes>
          <leafValues>
            -1.5373808145523071e-01 2.6029047369956970e-01</leafValues></_>
        <_>
          <internalNodes>
            0 -1 739 6.7610060796141624e-04</internalNodes>
          <leafValues>
            -1.1366212368011475e-01 3.5122898221015930e-01</leafValues></_>
        <_>
          <internalNodes>
            0 -1 427 -8.6210138397291303e-04</internalNodes>
          <leafValues>
            -2.7152171730995178e-01 1.3324342668056488e-01</leafValues></_>
        <_>
          <internalNodes>
            0 -1 350 -3.7406176328659058e-02</internalNodes>
          <leafValues>
            4.1659262776374817e-01 -8.8399745523929596e-02</leafValues></_>
        <_>
          <internalNodes>
            0 -1 87 -7.0105108898133039e-04</internalNodes>
          <leafValues>
            3.5867789387702942e-01 -1.0357694327831268e-01</leafValues></_>
        <_>
          <internalNodes>
            0 -1 700 3.3698603510856628e-04</internalNodes>
          <leafValues>
            1.1915452778339386e-01 -3.1984746456146240e-01</leafValues></_>
        <_>
          <internalNodes>
            0 -1 224 2.6445225812494755e-03</internalNodes>
          <leafValues>
            -5.5560972541570663e-02 6.7425161600112915e-01</leafValues></_>
        <_>
          <internalNodes>
            0 -1 790 5.4063308052718639e-03</internalNodes>
          <leafValues>
            -1.5630450844764709e-01 2.3519228398799896e-01</leafValues></_>
        <_>
          <internalNodes>
            0 -1 640 1.5492754755541682e-03</internalNodes>
          <leafValues>
            1.4966057240962982e-01 -2.5341573357582092e-01</leafValues></_>
        <_>
          <internalNodes>
            0 -1 824 -2.0044818520545959e-03</internalNodes>
          <leafValues>
            5.5174928158521652e-02 -6.4313626289367676e-01</leafValues></_>
        <_>
          <internalNodes>
            0 -1 254 -1.4059621840715408e-02</internalNodes>
          <leafValues>
            -9.5571339130401611e-02 4.5705077052116394e-01</leafValues></_>
        <_>
          <internalNodes>
            0 -1 780 -1.9530599936842918e-02</internalNodes>
          <leafValues>
            3.2763880491256714e-01 -1.1197739094495773e-01</leafValues></_>
        <_>
          <internalNodes>
            0 -1 433 2.8769033960998058e-03</internalNodes>
          <leafValues>
            -1.0698827356100082e-01 3.5115084052085876e-01</leafValues></_>
        <_>
          <internalNodes>
            0 -1 138 3.4178107976913452e-02</internalNodes>
          <leafValues>
            -1.3511310517787933e-01 2.5910031795501709e-01</leafValues></_>
        <_>
          <internalNodes>
            0 -1 131 1.8967542797327042e-02</internalNodes>
          <leafValues>
            -1.4497551321983337e-01 2.7695327997207642e-01</leafValues></_>
        <_>
          <internalNodes>
            0 -1 476 2.2529312409460545e-03</internalNodes>
          <leafValues>
            1.5266969799995422e-01 -2.2207866609096527e-01</leafValues></_>
        <_>
          <internalNodes>
            0 -1 354 -1.8238919973373413e-01</internalNodes>
          <leafValues>
            5.6644743680953979e-01 -6.9982595741748810e-02</leafValues></_>
        <_>
          <internalNodes>
            0 -1 478 -1.8139150924980640e-03</internalNodes>
          <leafValues>
            -2.7284634113311768e-01 1.3869723677635193e-01</leafValues></_>
        <_>
          <internalNodes>
            0 -1 417 5.5439583957195282e-03</internalNodes>
          <leafValues>
            8.4889270365238190e-02 -3.9389014244079590e-01</leafValues></_>
        <_>
          <internalNodes>
            0 -1 745 3.2388055697083473e-03</internalNodes>
          <leafValues>
            -7.3348157107830048e-02 5.0965601205825806e-01</leafValues></_></weakClassifiers></_>
    <!-- stage 5 -->
    <_>
      <maxWeakCount>53</maxWeakCount>
      <stageThreshold>-1.4083133935928345e+00</stageThreshold>
      <weakClassifiers>
        <_>
          <internalNodes>
            0 -1 78 6.7692073062062263e-03</internalNodes>
          <leafValues>
            -6.1904764175415039e-01 3.8759689778089523e-03</leafValues></_>
        <_>
          <internalNodes>
            0 -1 321 4.9508288502693176e-02</internalNodes>
          <leafValues>
            -2.8436601161956787e-01 3.3560478687286377e-01</leafValues></_>
        <_>
          <internalNodes>
            0 -1 231 -1.1234678328037262e-01</internalNodes>
          <leafValues>
            -3.0264505743980408e-01 1.8367847800254822e-01</leafValues></_>
        <_>
          <internalNodes>
            0 -1 533 -1.4822740107774734e-02</internalNodes>
          <leafValues>
            1.3103485107421875e-01 -5.7961785793304443e-01</leafValues></_>
        <_>
          <internalNodes>
            0 -1 785 9.1497702524065971e-03</internalNodes>
          <leafValues>
            -2.2966046631336212e-01 2.2378428280353546e-01</leafValues></_>
        <_>
          <internalNodes>
            0 -1 522 -2.0083696581423283e-03</internalNodes>
          <leafValues>
            -2.9355627298355103e-01 1.7081552743911743e-01</leafValues></_>
        <_>
          <internalNodes>
            0 -1 111 -7.5543083250522614e-02</internalNodes>
          <leafValues>
            2.8982427716255188e-01 -1.7156587541103363e-01</leafValues></_>
        <_>
          <internalNodes>
            0 -1 73 -3.1499125063419342e-02</internalNodes>
          <leafValues>
            6.0226482152938843e-01 -1.3971219956874847e-01</leafValues></_>
        <_>
          <internalNodes>
            0 -1 607 -3.7212681025266647e-02</internalNodes>
          <leafValues>
            -6.0292810201644897e-01 1.1472476273775101e-01</leafValues></_>
        <_>
          <internalNodes>
            0 -1 27 -4.4010773301124573e-02</internalNodes>
          <leafValues>
            3.1808382272720337e-01 -1.2255471944808960e-01</leafValues></_>
        <_>
          <internalNodes>
            0 -1 649 2.1387384913396090e-04</internalNodes>
          <leafValues>
            1.5188354253768921e-01 -2.7041804790496826e-01</leafValues></_>
        <_>
          <internalNodes>
            0 -1 812 -3.0993772670626640e-03</internalNodes>
          <leafValues>
            3.3614075183868408e-01 -1.1954579502344131e-01</leafValues></_>
        <_>
          <internalNodes>
            0 -1 817 -2.8857034631073475e-03</internalNodes>
          <leafValues>
            3.7533226609230042e-01 -8.5944928228855133e-02</leafValues></_>
        <_>
          <internalNodes>
            0 -1 807 -2.1044691093266010e-03</internalNodes>
          <leafValues>
            2.4088528752326965e-01 -1.4618109166622162e-01</leafValues></_>
        <_>
          <internalNodes>
            0 -1 53 2.6129168272018433e-01</internalNodes>
          <leafValues>
            -4.2491469532251358e-02 8.3079451322555542e-01</leafValues></_>
        <_>
          <internalNodes>
            0 -1 145 7.7067926526069641e-02</internalNodes>
          <leafValues>
            -1.1515470594167709e-01 2.9685714840888977e-01</leafValues></_>
        <_>
          <internalNodes>
            0 -1 48 -1.3403451442718506e-01</internalNodes>
          <leafValues>
            5.7128036022186279e-01 -1.1060757935047150e-01</leafValues></_>
        <_>
          <internalNodes>
            0 -1 353 -4.0425761835649610e-04</internalNodes>
          <leafValues>
            -2.4147944152355194e-01 1.6182504594326019e-01</leafValues></_>
        <_>
          <internalNodes>
            0 -1 20 -1.7787246406078339e-01</internalNodes>
          <leafValues>
            4.9188888072967529e-01 -7.3644019663333893e-02</leafValues></_>
        <_>
          <internalNodes>
            0 -1 438 3.8464195095002651e-03</internalNodes>
          <leafValues>
            -1.7511062324047089e-01 2.2243532538414001e-01</leafValues></_>
        <_>
          <internalNodes>
            0 -1 709 -7.1239570388570428e-04</internalNodes>
          <leafValues>
            3.4569337964057922e-01 -9.7857713699340820e-02</leafValues></_>
        <_>
          <internalNodes>
            0 -1 722 3.2419490162283182e-04</internalNodes>
          <leafValues>
            1.4059071242809296e-01 -2.3979532718658447e-01</leafValues></_>
        <_>
          <internalNodes>
            0 -1 712 -4.0741944685578346e-03</internalNodes>
          <leafValues>
            3.0779254436492920e-01 -1.1207344383001328e-01</leafValues></_>
        <_>
          <internalNodes>
            0 -1 739 -1.6300091519951820e-03</internalNodes>
          <leafValues>
            4.8093348741531372e-01 -6.7123293876647949e-02</leafValues></_>
        <_>
          <internalNodes>
            0 -1 387 2.1790320170111954e-04</internalNodes>
          <leafValues>
            1.3664419949054718e-01 -2.2354909777641296e-01</leafValues></_>
        <_>
          <internalNodes>
            0 -1 527 -9.3398569151759148e-04</internalNodes>
          <leafValues>
            3.6831438541412354e-01 -8.4616594016551971e-02</leafValues></_>
        <_>
          <internalNodes>
            0 -1 7 -2.0138055086135864e-02</internalNodes>
          <leafValues>
            -3.0230394005775452e-01 1.1159829795360565e-01</leafValues></_>
        <_>
          <internalNodes>
            0 -1 100 -6.2465008348226547e-02</internalNodes>
          <leafValues>
            5.5277787148952484e-02 -6.7351669073104858e-01</leafValues></_>
        <_>
          <internalNodes>
            0 -1 508 1.4479118399322033e-03</internalNodes>
          <leafValues>
            1.1435521394014359e-01 -2.8042075037956238e-01</leafValues></_>
        <_>
          <internalNodes>
            0 -1 313 -2.4205902591347694e-03</internalNodes>
          <leafValues>
            4.4817531108856201e-01 -8.4964700043201447e-02</leafValues></_>
        <_>
          <internalNodes>
            0 -1 126 -7.4687823653221130e-03</internalNodes>
          <leafValues>
            2.0422495901584625e-01 -1.9089758396148682e-01</leafValues></_>
        <_>
          <internalNodes>
            0 -1 477 -3.8566449657082558e-03</internalNodes>
          <leafValues>
            -3.5884943604469299e-01 9.8796114325523376e-02</leafValues></_>
        <_>
          <internalNodes>
            0 -1 789 -3.1064292415976524e-03</internalNodes>
          <leafValues>
            -6.3792186975479126e-01 3.9510365575551987e-02</leafValues></_>
        <_>
          <internalNodes>
            0 -1 130 3.1978404149413109e-03</internalNodes>
          <leafValues>
            -1.1990281939506531e-01 2.7158313989639282e-01</leafValues></_>
        <_>
          <internalNodes>
            0 -1 232 2.1909025963395834e-03</internalNodes>
          <leafValues>
            -8.7590731680393219e-02 3.2319551706314087e-01</leafValues></_>
        <_>
          <internalNodes>
            0 -1 748 -1.2406401336193085e-02</internalNodes>
          <leafValues>
            2.0615547895431519e-01 -1.5598788857460022e-01</leafValues></_>
        <_>
          <internalNodes>
            0 -1 376 3.5419263876974583e-03</internalNodes>
          <leafValues>
            -1.1812631785869598e-01 2.7350279688835144e-01</leafValues></_>
        <_>
          <internalNodes>
            0 -1 455 -8.3704693242907524e-03</internalNodes>
          <leafValues>
            -3.9505615830421448e-02 7.4064451456069946e-01</leafValues></_>
        <_>
          <internalNodes>
            0 -1 107 -3.1937249004840851e-02</internalNodes>
          <leafValues>
            -5.8092743158340454e-01 5.6183222681283951e-02</leafValues></_>
        <_>
          <internalNodes>
            0 -1 519 1.9251364574301988e-04</internalNodes>
          <leafValues>
            1.3270492851734161e-01 -2.2803750634193420e-01</leafValues></_>
        <_>
          <internalNodes>
            0 -1 705 -4.3537221848964691e-02</internalNodes>
          <leafValues>
            4.4855430722236633e-02 -7.0113390684127808e-01</leafValues></_>
        <_>
          <internalNodes>
            0 -1 449 -5.1136903464794159e-02</internalNodes>
          <leafValues>
            2.2950632870197296e-01 -1.4609886705875397e-01</leafValues></_>
        <_>
          <internalNodes>
            0 -1 153 6.2860138714313507e-03</internalNodes>
          <leafValues>
            -5.9132017195224762e-02 5.6211280822753906e-01</leafValues></_>
        <_>
          <internalNodes>
            0 -1 153 -1.4776038005948067e-03</internalNodes>
          <leafValues>
            2.5257956981658936e-01 -1.1882776021957397e-01</leafValues></_>
        <_>
          <internalNodes>
            0 -1 327 -1.2345258891582489e-01</internalNodes>
          <leafValues>
            5.1944094896316528e-01 -5.8024011552333832e-02</leafValues></_>
        <_>
          <internalNodes>
            0 -1 56 1.0573054105043411e-01</internalNodes>
          <leafValues>
            -1.4500533044338226e-01 2.4040362238883972e-01</leafValues></_>
        <_>
          <internalNodes>
            0 -1 261 1.2912612874060869e-03</internalNodes>
          <leafValues>
            1.4421346783638000e-01 -2.5291386246681213e-01</leafValues></_>
        <_>
          <internalNodes>
            0 -1 129 9.9798291921615601e-02</internalNodes>
          <leafValues>
            3.8024764508008957e-02 -8.3051562309265137e-01</leafValues></_>
        <_>
          <internalNodes>
            0 -1 716 1.2112063122913241e-03</internalNodes>
          <leafValues>
            -8.6839191615581512e-02 4.0671175718307495e-01</leafValues></_>
        <_>
          <internalNodes>
            0 -1 610 -4.6670887968502939e-04</internalNodes>
          <leafValues>
            -3.1389200687408447e-01 9.5593340694904327e-02</leafValues></_>
        <_>
          <internalNodes>
            0 -1 21 -2.5539347529411316e-01</internalNodes>
          <leafValues>
            6.0908848047256470e-01 -5.7423993945121765e-02</leafValues></_>
        <_>
          <internalNodes>
            0 -1 202 1.6699789091944695e-02</internalNodes>
          <leafValues>
            -1.1991795897483826e-01 2.5408738851547241e-01</leafValues></_>
        <_>
          <internalNodes>
            0 -1 454 -2.4492250755429268e-02</internalNodes>
          <leafValues>
            6.0695606470108032e-01 -5.7639971375465393e-02</leafValues></_></weakClassifiers></_>
    <!-- stage 6 -->
    <_>
      <maxWeakCount>54</maxWeakCount>
      <stageThreshold>-1.3227332830429077e+00</stageThreshold>
      <weakClassifiers>
        <_>
          <internalNodes>
            0 -1 225 -7.9820767045021057e-02</internalNodes>
          <leafValues>
            1.5966387093067169e-01 -5.1057404279708862e-01</leafValues></_>
        <_>
          <internalNodes>
            0 -1 18 1.0079143568873405e-02</internalNodes>
          <leafValues>
            -3.1435555219650269e-01 2.5106447935104370e-01</leafValues></_>
        <_>
          <internalNodes>
            0 -1 64 9.2988461256027222e-03</internalNodes>
          <leafValues>
            -1.9773964583873749e-01 2.8364065289497375e-01</leafValues></_>
        <_>
          <internalNodes>
            0 -1 733 4.3985061347484589e-02</internalNodes>
          <leafValues>
            -1.3137187063694000e-01 3.3791741728782654e-01</leafValues></_>
        <_>
          <internalNodes>
            0 -1 214 1.5897849202156067e-01</internalNodes>
          <leafValues>
            -8.5778519511222839e-02 5.1048719882965088e-01</leafValues></_>
        <_>
          <internalNodes>
            0 -1 539 -1.8013241887092590e-01</internalNodes>
          <leafValues>
            3.4912791848182678e-01 -8.9998170733451843e-02</leafValues></_>
        <_>
          <internalNodes>
            0 -1 124 -9.3143377453088760e-03</internalNodes>
          <leafValues>
            -2.8428596258163452e-01 1.6940268874168396e-01</leafValues></_>
        <_>
          <internalNodes>
            0 -1 653 -1.3283936306834221e-02</internalNodes>
          <leafValues>
            3.0811307951807976e-02 -6.4470553398132324e-01</leafValues></_>
        <_>
          <internalNodes>
            0 -1 515 -2.5857207365334034e-03</internalNodes>
          <leafValues>
            -2.8017416596412659e-01 1.4068244397640228e-01</leafValues></_>
        <_>
          <internalNodes>
            0 -1 279 -3.7395786494016647e-03</internalNodes>
          <leafValues>
            3.6706429719924927e-01 -9.6148192882537842e-02</leafValues></_>
        <_>
          <internalNodes>
            0 -1 340 4.8743551596999168e-03</internalNodes>
          <leafValues>
            -9.8612412810325623e-02 3.6020228266716003e-01</leafValues></_>
        <_>
          <internalNodes>
            0 -1 555 1.0385010391473770e-03</internalNodes>
          <leafValues>
            1.3025039434432983e-01 -2.7504280209541321e-01</leafValues></_>
        <_>
          <internalNodes>
            0 -1 559 -5.5552732199430466e-02</internalNodes>
          <leafValues>
            3.9486572146415710e-01 -7.5675614178180695e-02</leafValues></_>
        <_>
          <internalNodes>
            0 -1 562 2.2164410620462149e-04</internalNodes>
          <leafValues>
            1.2718969583511353e-01 -2.4352118372917175e-01</leafValues></_>
        <_>
          <internalNodes>
            0 -1 305 -8.2121079321950674e-04</internalNodes>
          <leafValues>
            3.5191318392753601e-01 -8.1857942044734955e-02</leafValues></_>
        <_>
          <internalNodes>
            0 -1 147 1.2053316831588745e-01</internalNodes>
          <leafValues>
            -8.1258192658424377e-02 4.1290754079818726e-01</leafValues></_>
        <_>
          <internalNodes>
            0 -1 114 -1.0704138549044728e-03</internalNodes>
          <leafValues>
            4.1628099977970123e-02 -7.1410709619522095e-01</leafValues></_>
        <_>
          <internalNodes>
            0 -1 238 1.6124773770570755e-02</internalNodes>
          <leafValues>
            -1.3906039297580719e-01 2.4014973640441895e-01</leafValues></_>
        <_>
          <internalNodes>
            0 -1 598 -1.4795594848692417e-02</internalNodes>
          <leafValues>
            -5.7869300246238708e-02 5.5017507076263428e-01</leafValues></_>
        <_>
          <internalNodes>
            0 -1 463 -5.8207930997014046e-03</internalNodes>
          <leafValues>
            2.6980739831924438e-01 -1.2766596674919128e-01</leafValues></_>
        <_>
          <internalNodes>
            0 -1 711 1.2801683042198420e-03</internalNodes>
          <leafValues>
            -1.2443400919437408e-01 2.9746314883232117e-01</leafValues></_>
        <_>
          <internalNodes>
            0 -1 768 -1.9778227433562279e-03</internalNodes>
          <leafValues>
            3.4643265604972839e-01 -7.9430341720581055e-02</leafValues></_>
        <_>
          <internalNodes>
            0 -1 457 4.2088876944035292e-04</internalNodes>
          <leafValues>
            1.3996689021587372e-01 -2.2726599872112274e-01</leafValues></_>
        <_>
          <internalNodes>
            0 -1 44 4.2515106499195099e-02</internalNodes>
          <leafValues>
            2.7535470202565193e-02 -8.7301307916641235e-01</leafValues></_>
        <_>
          <internalNodes>
            0 -1 468 -4.1752457618713379e-02</internalNodes>
          <leafValues>
            2.9388461261987686e-02 -7.5619000196456909e-01</leafValues></_>
        <_>
          <internalNodes>
            0 -1 664 3.5334806889295578e-03</internalNodes>
          <leafValues>
            -9.8357319831848145e-02 3.2572087645530701e-01</leafValues></_>
        <_>
          <internalNodes>
            0 -1 556 -1.6800214070826769e-03</internalNodes>
          <leafValues>
            -2.4802519381046295e-01 1.1737807840108871e-01</leafValues></_>
        <_>
          <internalNodes>
            0 -1 367 -1.5666782855987549e-02</internalNodes>
          <leafValues>
            3.7874075770378113e-01 -8.9064352214336395e-02</leafValues></_>
        <_>
          <internalNodes>
            0 -1 162 4.5249450951814651e-02</internalNodes>
          <leafValues>
            2.9878281056880951e-02 -9.5725733041763306e-01</leafValues></_>
        <_>
          <internalNodes>
            0 -1 117 8.4334965795278549e-03</internalNodes>
          <leafValues>
            -1.8196380138397217e-01 1.5664234757423401e-01</leafValues></_>
        <_>
          <internalNodes>
            0 -1 180 -5.9970300644636154e-03</internalNodes>
          <leafValues>
            3.8901305198669434e-01 -1.2234404683113098e-01</leafValues></_>
        <_>
          <internalNodes>
            0 -1 366 -5.1114335656166077e-04</internalNodes>
          <leafValues>
            -2.2482682764530182e-01 1.4814575016498566e-01</leafValues></_>
        <_>
          <internalNodes>
            0 -1 94 -4.9910075031220913e-03</internalNodes>
          <leafValues>
            3.3744025230407715e-01 -9.6394382417201996e-02</leafValues></_>
        <_>
          <internalNodes>
            0 -1 609 9.7778439521789551e-03</internalNodes>
          <leafValues>
            -7.1958541870117188e-02 3.9306047558784485e-01</leafValues></_>
        <_>
          <internalNodes>
            0 -1 648 -1.0246623307466507e-02</internalNodes>
          <leafValues>
            1.6661392152309418e-01 -2.0338454842567444e-01</leafValues></_>
        <_>
          <internalNodes>
            0 -1 638 4.7829456627368927e-02</internalNodes>
          <leafValues>
            -9.9273584783077240e-02 3.6613744497299194e-01</leafValues></_>
        <_>
          <internalNodes>
            0 -1 656 2.5250293314456940e-02</internalNodes>
          <leafValues>
            5.4248958826065063e-02 -7.7849698066711426e-01</leafValues></_>
        <_>
          <internalNodes>
            0 -1 102 6.6905084531754255e-04</internalNodes>
          <leafValues>
            -1.1056175082921982e-01 2.9256489872932434e-01</leafValues></_>
        <_>
          <internalNodes>
            0 -1 393 6.4926990307867527e-04</internalNodes>
          <leafValues>
            1.0675159841775894e-01 -2.5257906317710876e-01</leafValues></_>
        <_>
          <internalNodes>
            0 -1 88 3.4917872399091721e-03</internalNodes>
          <leafValues>
            -6.8364962935447693e-02 4.9031817913055420e-01</leafValues></_>
        <_>
          <internalNodes>
            0 -1 626 -1.2837454960390460e-05</internalNodes>
          <leafValues>
            1.5996451675891876e-01 -1.7629092931747437e-01</leafValues></_>
        <_>
          <internalNodes>
            0 -1 788 -9.8670460283756256e-03</internalNodes>
          <leafValues>
            1.9192311167716980e-01 -1.4213940501213074e-01</leafValues></_>
        <_>
          <internalNodes>
            0 -1 123 3.4102916717529297e-02</internalNodes>
          <leafValues>
            -6.0439746826887131e-02 5.3192877769470215e-01</leafValues></_>
        <_>
          <internalNodes>
            0 -1 622 2.3487177677452564e-03</internalNodes>
          <leafValues>
            1.0208929330110550e-01 -3.4294751286506653e-01</leafValues></_>
        <_>
          <internalNodes>
            0 -1 525 -1.2269414961338043e-02</internalNodes>
          <leafValues>
            2.9810249805450439e-01 -1.1444913595914841e-01</leafValues></_>
        <_>
          <internalNodes>
            0 -1 820 -4.5546023175120354e-03</internalNodes>
          <leafValues>
            6.0400068759918213e-02 -5.8124172687530518e-01</leafValues></_>
        <_>
          <internalNodes>
            0 -1 684 -1.5213276259601116e-02</internalNodes>
          <leafValues>
            -1.9959257543087006e-01 1.6366451978683472e-01</leafValues></_>
        <_>
          <internalNodes>
            0 -1 171 4.7487122938036919e-03</internalNodes>
          <leafValues>
            -1.8086980283260345e-01 1.9123777747154236e-01</leafValues></_>
        <_>
          <internalNodes>
            0 -1 666 1.8429579213261604e-03</internalNodes>
          <leafValues>
            -1.0350975394248962e-01 3.6033523082733154e-01</leafValues></_>
        <_>
          <internalNodes>
            0 -1 502 1.4335404150187969e-02</internalNodes>
          <leafValues>
            4.4104449450969696e-02 -7.7364712953567505e-01</leafValues></_>
        <_>
          <internalNodes>
            0 -1 400 2.8159585781395435e-04</internalNodes>
          <leafValues>
            1.2841071188449860e-01 -2.2842608392238617e-01</leafValues></_>
        <_>
          <internalNodes>
            0 -1 398 3.0269993003457785e-03</internalNodes>
          <leafValues>
            -7.3326803743839264e-02 4.5590215921401978e-01</leafValues></_>
        <_>
          <internalNodes>
            0 -1 196 1.7051752656698227e-02</internalNodes>
          <leafValues>
            -1.4569802582263947e-01 2.2491259872913361e-01</leafValues></_>
        <_>
          <internalNodes>
            0 -1 411 -8.2657992839813232e-02</internalNodes>
          <leafValues>
            5.8933365345001221e-01 -5.8219317346811295e-02</leafValues></_></weakClassifiers></_>
    <!-- stage 7 -->
    <_>
      <maxWeakCount>49</maxWeakCount>
      <stageThreshold>-1.2624744176864624e+00</stageThreshold>
      <weakClassifiers>
        <_>
          <internalNodes>
            0 -1 194 1.3711103796958923e-01</internalNodes>
          <leafValues>
            -5.4158729314804077e-01 1.5259259939193726e-01</leafValues></_>
        <_>
          <internalNodes>
            0 -1 184 -3.9464287459850311e-02</internalNodes>
          <leafValues>
            3.4835693240165710e-01 -2.4691443145275116e-01</leafValues></_>
        <_>
          <internalNodes>
            0 -1 41 -3.0544502660632133e-02</internalNodes>
          <leafValues>
            3.5886231064796448e-01 -1.4263555407524109e-01</leafValues></_>
        <_>
          <internalNodes>
            0 -1 540 4.9352343194186687e-04</internalNodes>
          <leafValues>
            1.4164879918098450e-01 -3.2476273179054260e-01</leafValues></_>
        <_>
          <internalNodes>
            0 -1 61 5.0819773226976395e-02</internalNodes>
          <leafValues>
            -1.3649804890155792e-01 3.0107045173645020e-01</leafValues></_>
        <_>
          <internalNodes>
            0 -1 191 -7.5906947255134583e-02</internalNodes>
          <leafValues>
            4.0281435847282410e-01 -1.5945374965667725e-01</leafValues></_>
        <_>
          <internalNodes>
            0 -1 736 -3.5728953778743744e-02</internalNodes>
          <leafValues>
            3.0463582277297974e-01 -1.2799534201622009e-01</leafValues></_>
        <_>
          <internalNodes>
            0 -1 637 5.3992427885532379e-02</internalNodes>
          <leafValues>
            -9.0213172137737274e-02 4.3055453896522522e-01</leafValues></_>
        <_>
          <internalNodes>
            0 -1 541 -6.0346726328134537e-02</internalNodes>
          <leafValues>
            2.8681358695030212e-01 -1.3211326301097870e-01</leafValues></_>
        <_>
          <internalNodes>
            0 -1 474 1.1414206027984619e-01</internalNodes>
          <leafValues>
            -4.7718569636344910e-02 5.1154714822769165e-01</leafValues></_>
        <_>
          <internalNodes>
            0 -1 543 -1.8085449119098485e-04</internalNodes>
          <leafValues>
            -2.2988060116767883e-01 1.5548038482666016e-01</leafValues></_>
        <_>
          <internalNodes>
            0 -1 192 1.2152820825576782e-02</internalNodes>
          <leafValues>
            -1.4262546598911285e-01 2.3520886898040771e-01</leafValues></_>
        <_>
          <internalNodes>
            0 -1 338 6.9927617907524109e-02</internalNodes>
          <leafValues>
            -8.2986295223236084e-02 4.3884637951850891e-01</leafValues></_>
        <_>
          <internalNodes>
            0 -1 205 5.5331148207187653e-02</internalNodes>
          <leafValues>
            -1.2475044280290604e-01 3.3030191063880920e-01</leafValues></_>
        <_>
          <internalNodes>
            0 -1 752 -3.5482656676322222e-03</internalNodes>
          <leafValues>
            2.0380237698554993e-01 -1.8627710640430450e-01</leafValues></_>
        <_>
          <internalNodes>
            0 -1 423 8.9727468788623810e-02</internalNodes>
          <leafValues>
            -5.6573666632175446e-02 6.5569412708282471e-01</leafValues></_>
        <_>
          <internalNodes>
            0 -1 335 2.4114293046295643e-03</internalNodes>
          <leafValues>
            1.3274554908275604e-01 -2.7169796824455261e-01</leafValues></_>
        <_>
          <internalNodes>
            0 -1 492 -1.2989555252715945e-03</internalNodes>
          <leafValues>
            -3.5079801082611084e-01 8.0054648220539093e-02</leafValues></_>
        <_>
          <internalNodes>
            0 -1 488 -7.9358294606208801e-03</internalNodes>
          <leafValues>
            -8.5268384218215942e-01 3.2744340598583221e-02</leafValues></_>
        <_>
          <internalNodes>
            0 -1 262 1.5525236725807190e-02</internalNodes>
          <leafValues>
            -1.1521629989147186e-01 2.5640103220939636e-01</leafValues></_>
        <_>
          <internalNodes>
            0 -1 242 2.0516613498330116e-02</internalNodes>
          <leafValues>
            -9.8342113196849823e-02 2.9681956768035889e-01</leafValues></_>
        <_>
          <internalNodes>
            0 -1 17 2.3422738909721375e-01</internalNodes>
          <leafValues>
            -8.2815922796726227e-02 3.6515831947326660e-01</leafValues></_>
        <_>
          <internalNodes>
            0 -1 186 -1.9841615110635757e-02</internalNodes>
          <leafValues>
            4.0691393613815308e-01 -8.4006339311599731e-02</leafValues></_>
        <_>
          <internalNodes>
            0 -1 692 -1.2144241482019424e-02</internalNodes>
          <leafValues>
            5.0442105531692505e-01 -5.9700351208448410e-02</leafValues></_>
        <_>
          <internalNodes>
            0 -1 91 1.7516773659735918e-03</internalNodes>
          <leafValues>
            -9.9625006318092346e-02 2.7551615238189697e-01</leafValues></_>
        <_>
          <internalNodes>
            0 -1 109 -1.6227953601628542e-03</internalNodes>
          <leafValues>
            5.0112247467041016e-02 -6.3101494312286377e-01</leafValues></_>
        <_>
          <internalNodes>
            0 -1 671 -1.7694823909550905e-03</internalNodes>
          <leafValues>
            -3.8230329751968384e-01 7.0637956261634827e-02</leafValues></_>
        <_>
          <internalNodes>
            0 -1 116 2.2204353008419275e-03</internalNodes>
          <leafValues>
            9.1117486357688904e-02 -2.9339775443077087e-01</leafValues></_>
        <_>
          <internalNodes>
            0 -1 520 9.3168707098811865e-04</internalNodes>
          <leafValues>
            7.9834431409835815e-02 -3.0899789929389954e-01</leafValues></_>
        <_>
          <internalNodes>
            0 -1 245 7.1663717972114682e-04</internalNodes>
          <leafValues>
            -8.7043918669223785e-02 2.9395696520805359e-01</leafValues></_>
        <_>
          <internalNodes>
            0 -1 22 -1.0589135345071554e-03</internalNodes>
          <leafValues>
            -4.1925093531608582e-01 6.7309662699699402e-02</leafValues></_>
        <_>
          <internalNodes>
            0 -1 315 3.9928271435201168e-03</internalNodes>
          <leafValues>
            -1.4985640347003937e-01 1.8137887120246887e-01</leafValues></_>
        <_>
          <internalNodes>
            0 -1 239 2.0915396511554718e-02</internalNodes>
          <leafValues>
            5.5667974054813385e-02 -5.6693655252456665e-01</leafValues></_>
        <_>
          <internalNodes>
            0 -1 501 -2.7237448841333389e-02</internalNodes>
          <leafValues>
            3.9355349540710449e-01 -7.5562678277492523e-02</leafValues></_>
        <_>
          <internalNodes>
            0 -1 345 -9.7840428352355957e-03</internalNodes>
          <leafValues>
            1.9537772238254547e-01 -1.3846297562122345e-01</leafValues></_>
        <_>
          <internalNodes>
            0 -1 295 2.6559364050626755e-03</internalNodes>
          <leafValues>
            8.3919428288936615e-02 -3.1693056225776672e-01</leafValues></_>
        <_>
          <internalNodes>
            0 -1 160 1.1998323723673820e-02</internalNodes>
          <leafValues>
            5.6490898132324219e-02 -4.4992899894714355e-01</leafValues></_>
        <_>
          <internalNodes>
            0 -1 318 1.2481672689318657e-02</internalNodes>
          <leafValues>
            -1.0804271697998047e-01 2.4945448338985443e-01</leafValues></_>
        <_>
          <internalNodes>
            0 -1 781 2.1038879640400410e-03</internalNodes>
          <leafValues>
            -4.4805586338043213e-02 5.3664124011993408e-01</leafValues></_>
        <_>
          <internalNodes>
            0 -1 39 3.8576338440179825e-02</internalNodes>
          <leafValues>
            -1.3268773257732391e-01 2.0665283501148224e-01</leafValues></_>
        <_>
          <internalNodes>
            0 -1 151 1.4911824837327003e-02</internalNodes>
          <leafValues>
            3.8093578070402145e-02 -6.6823393106460571e-01</leafValues></_>
        <_>
          <internalNodes>
            0 -1 630 -6.5769781358540058e-03</internalNodes>
          <leafValues>
            -4.9136576056480408e-01 4.8583485186100006e-02</leafValues></_>
        <_>
          <internalNodes>
            0 -1 545 -2.6116482913494110e-02</internalNodes>
          <leafValues>
            5.2396452426910400e-01 -5.2298251539468765e-02</leafValues></_>
        <_>
          <internalNodes>
            0 -1 750 -3.2801497727632523e-02</internalNodes>
          <leafValues>
            5.2281480282545090e-02 -6.1387699842453003e-01</leafValues></_>
        <_>
          <internalNodes>
            0 -1 639 -3.6180175840854645e-02</internalNodes>
          <leafValues>
            -5.5699873715639114e-02 6.3694572448730469e-01</leafValues></_>
        <_>
          <internalNodes>
            0 -1 510 -4.5029245316982269e-02</internalNodes>
          <leafValues>
            2.2426912188529968e-01 -1.3349309563636780e-01</leafValues></_>
        <_>
          <internalNodes>
            0 -1 619 -3.0649639666080475e-04</internalNodes>
          <leafValues>
            -2.1930861473083496e-01 1.4106167852878571e-01</leafValues></_>
        <_>
          <internalNodes>
            0 -1 628 2.9678789433091879e-03</internalNodes>
          <leafValues>
            3.4584809094667435e-02 -6.7004305124282837e-01</leafValues></_>
        <_>
          <internalNodes>
            0 -1 317 -5.4540589451789856e-02</internalNodes>
          <leafValues>
            -2.6554450392723083e-01 9.5249339938163757e-02</leafValues></_></weakClassifiers></_>
    <!-- stage 8 -->
    <_>
      <maxWeakCount>58</maxWeakCount>
      <stageThreshold>-1.2919481992721558e+00</stageThreshold>
      <weakClassifiers>
        <_>
          <internalNodes>
            0 -1 804 -1.1979031376540661e-02</internalNodes>
          <leafValues>
            5.6179776787757874e-02 -5.1365411281585693e-01</leafValues></_>
        <_>
          <internalNodes>
            0 -1 435 -6.7540369927883148e-03</internalNodes>
          <leafValues>
            2.1657878160476685e-01 -2.8258270025253296e-01</leafValues></_>
        <_>
          <internalNodes>
            0 -1 469 6.1174845322966576e-03</internalNodes>
          <leafValues>
            -1.4825536310672760e-01 3.0848762392997742e-01</leafValues></_>
        <_>
          <internalNodes>
            0 -1 215 -8.4552960470318794e-03</internalNodes>
          <leafValues>
            2.3354968428611755e-01 -1.5785686671733856e-01</leafValues></_>
        <_>
          <internalNodes>
            0 -1 13 -2.6252126693725586e-01</internalNodes>
          <leafValues>
            -3.9414396882057190e-01 8.7827548384666443e-02</leafValues></_>
        <_>
          <internalNodes>
            0 -1 589 2.2523424122482538e-03</internalNodes>
          <leafValues>
            -7.8651033341884613e-02 3.9560481905937195e-01</leafValues></_>
        <_>
          <internalNodes>
            0 -1 734 -4.4677130877971649e-02</internalNodes>
          <leafValues>
            6.8263567984104156e-02 -5.2946764230728149e-01</leafValues></_>
        <_>
          <internalNodes>
            0 -1 204 -9.4339909264817834e-04</internalNodes>
          <leafValues>
            4.2802593111991882e-01 -6.9992981851100922e-02</leafValues></_>
        <_>
          <internalNodes>
            0 -1 249 -2.3426592350006104e-01</internalNodes>
          <leafValues>
            -9.8058447241783142e-02 3.2112058997154236e-01</leafValues></_>
        <_>
          <internalNodes>
            0 -1 158 6.8913921713829041e-03</internalNodes>
          <leafValues>
            -1.8092237412929535e-01 1.9996863603591919e-01</leafValues></_>
        <_>
          <internalNodes>
            0 -1 74 -3.6681629717350006e-02</internalNodes>
          <leafValues>
            4.2428103089332581e-01 -4.8740644007921219e-02</leafValues></_>
        <_>
          <internalNodes>
            0 -1 216 -1.5533661935478449e-03</internalNodes>
          <leafValues>
            -2.6379534602165222e-01 1.2504242360591888e-01</leafValues></_>
        <_>
          <internalNodes>
            0 -1 68 1.4454952906817198e-03</internalNodes>
          <leafValues>
            -6.3382260501384735e-02 4.4286793470382690e-01</leafValues></_>
        <_>
          <internalNodes>
            0 -1 1 -8.4614399820566177e-03</internalNodes>
          <leafValues>
            4.8062406480312347e-02 -6.6710931062698364e-01</leafValues></_>
        <_>
          <internalNodes>
            0 -1 719 1.6356506384909153e-03</internalNodes>
          <leafValues>
            9.7446218132972717e-02 -2.8624117374420166e-01</leafValues></_>
        <_>
          <internalNodes>
            0 -1 698 3.7074711173772812e-02</internalNodes>
          <leafValues>
            -8.0498710274696350e-02 3.9705178141593933e-01</leafValues></_>
        <_>
          <internalNodes>
            0 -1 687 -3.4121632575988770e-02</internalNodes>
          <leafValues>
            1.8267822265625000e-01 -2.0072095096111298e-01</leafValues></_>
        <_>
          <internalNodes>
            0 -1 670 -9.6593215130269527e-04</internalNodes>
          <leafValues>
            -2.4282319843769073e-01 1.1771494150161743e-01</leafValues></_>
        <_>
          <internalNodes>
            0 -1 224 1.7753799911588430e-03</internalNodes>
          <leafValues>
            -6.1506796628236771e-02 4.8791918158531189e-01</leafValues></_>
        <_>
          <internalNodes>
            0 -1 798 1.1640213197097182e-03</internalNodes>
          <leafValues>
            -9.2054218053817749e-02 2.7112892270088196e-01</leafValues></_>
        <_>
          <internalNodes>
            0 -1 174 -8.0737397074699402e-03</internalNodes>
          <leafValues>
            3.5232275724411011e-01 -7.4804216623306274e-02</leafValues></_>
        <_>
          <internalNodes>
            0 -1 270 1.3252692042442504e-05</internalNodes>
          <leafValues>
            -1.6798895597457886e-01 1.6585484147071838e-01</leafValues></_>
        <_>
          <internalNodes>
            0 -1 21 2.4293777346611023e-01</internalNodes>
          <leafValues>
            -8.4932707250118256e-02 3.0314630270004272e-01</leafValues></_>
        <_>
          <internalNodes>
            0 -1 442 6.7680017091333866e-03</internalNodes>
          <leafValues>
            1.4771413803100586e-01 -2.8840735554695129e-01</leafValues></_>
        <_>
          <internalNodes>
            0 -1 802 -5.7188485516235232e-04</internalNodes>
          <leafValues>
            2.7247709035873413e-01 -1.0387279838323593e-01</leafValues></_>
        <_>
          <internalNodes>
            0 -1 235 3.5460226237773895e-02</internalNodes>
          <leafValues>
            4.8267275094985962e-02 -6.2718039751052856e-01</leafValues></_>
        <_>
          <internalNodes>
            0 -1 730 1.7985867336392403e-02</internalNodes>
          <leafValues>
            2.9130911454558372e-02 -7.6994597911834717e-01</leafValues></_>
        <_>
          <internalNodes>
            0 -1 409 -4.0797602385282516e-02</internalNodes>
          <leafValues>
            -7.5753432512283325e-01 2.8365073725581169e-02</leafValues></_>
        <_>
          <internalNodes>
            0 -1 346 -2.4798247031867504e-03</internalNodes>
          <leafValues>
            3.7329894304275513e-01 -8.0546289682388306e-02</leafValues></_>
        <_>
          <internalNodes>
            0 -1 642 -9.5927063375711441e-04</internalNodes>
          <leafValues>
            -2.5325536727905273e-01 1.0342226177453995e-01</leafValues></_>
        <_>
          <internalNodes>
            0 -1 774 -1.2336740270256996e-02</internalNodes>
          <leafValues>
            -6.3463264703750610e-01 4.1982773691415787e-02</leafValues></_>
        <_>
          <internalNodes>
            0 -1 618 1.1241646716371179e-03</internalNodes>
          <leafValues>
            1.0948403179645538e-01 -2.2756981849670410e-01</leafValues></_>
        <_>
          <internalNodes>
            0 -1 446 2.0259346067905426e-01</internalNodes>
          <leafValues>
            -6.1959467828273773e-02 6.0099208354949951e-01</leafValues></_>
        <_>
          <internalNodes>
            0 -1 756 1.0206639766693115e-02</internalNodes>
          <leafValues>
            -6.3654102385044098e-02 3.8454514741897583e-01</leafValues></_>
        <_>
          <internalNodes>
            0 -1 341 8.5168899968266487e-03</internalNodes>
          <leafValues>
            -1.0679409652948380e-01 2.5097134709358215e-01</leafValues></_>
        <_>
          <internalNodes>
            0 -1 193 1.2463729083538055e-01</internalNodes>
          <leafValues>
            -1.3145220279693604e-01 2.1263344585895538e-01</leafValues></_>
        <_>
          <internalNodes>
            0 -1 404 -1.8978901207447052e-03</internalNodes>
          <leafValues>
            3.7469294667243958e-01 -9.3575850129127502e-02</leafValues></_>
        <_>
          <internalNodes>
            0 -1 460 -2.8785220347344875e-03</internalNodes>
          <leafValues>
            -5.8266568183898926e-01 5.4732907563447952e-02</leafValues></_>
        <_>
          <internalNodes>
            0 -1 816 2.4005519226193428e-03</internalNodes>
          <leafValues>
            -6.7805081605911255e-02 4.2344534397125244e-01</leafValues></_>
        <_>
          <internalNodes>
            0 -1 654 5.5034132674336433e-03</internalNodes>
          <leafValues>
            4.8047110438346863e-02 -5.5447649955749512e-01</leafValues></_>
        <_>
          <internalNodes>
            0 -1 422 -2.7766716084443033e-04</internalNodes>
          <leafValues>
            -2.1294394135475159e-01 1.1613997817039490e-01</leafValues></_>
        <_>
          <internalNodes>
            0 -1 271 4.2832298204302788e-03</internalNodes>
          <leafValues>
            -4.9383427947759628e-02 5.4844242334365845e-01</leafValues></_>
        <_>
          <internalNodes>
            0 -1 57 -9.2786699533462524e-02</internalNodes>
          <leafValues>
            3.6097773909568787e-01 -6.7457593977451324e-02</leafValues></_>
        <_>
          <internalNodes>
            0 -1 291 -8.1223028246313334e-04</internalNodes>
          <leafValues>
            -2.1355213224887848e-01 1.4573611319065094e-01</leafValues></_>
        <_>
          <internalNodes>
            0 -1 36 1.0639723390340805e-02</internalNodes>
          <leafValues>
            -1.5142762660980225e-01 1.8298922479152679e-01</leafValues></_>
        <_>
          <internalNodes>
            0 -1 251 3.2284003682434559e-03</internalNodes>
          <leafValues>
            -9.3195013701915741e-02 3.0857145786285400e-01</leafValues></_>
        <_>
          <internalNodes>
            0 -1 377 -1.4788454864174128e-03</internalNodes>
          <leafValues>
            4.8500424623489380e-01 -5.1885325461626053e-02</leafValues></_>
        <_>
          <internalNodes>
            0 -1 731 1.2401496060192585e-03</internalNodes>
          <leafValues>
            8.5066750645637512e-02 -3.0830264091491699e-01</leafValues></_>
        <_>
          <internalNodes>
            0 -1 414 -6.0241734609007835e-03</internalNodes>
          <leafValues>
            1.7288747429847717e-01 -1.7595081031322479e-01</leafValues></_>
        <_>
          <internalNodes>
            0 -1 392 1.4934712089598179e-04</internalNodes>
          <leafValues>
            1.1015544831752777e-01 -2.1491155028343201e-01</leafValues></_>
        <_>
          <internalNodes>
            0 -1 287 -4.3247971683740616e-02</internalNodes>
          <leafValues>
            3.6614623665809631e-01 -7.0870287716388702e-02</leafValues></_>
        <_>
          <internalNodes>
            0 -1 203 4.8981063067913055e-02</internalNodes>
          <leafValues>
            4.5732192695140839e-02 -5.8753591775894165e-01</leafValues></_>
        <_>
          <internalNodes>
            0 -1 677 -6.1340339016169310e-05</internalNodes>
          <leafValues>
            1.4188253879547119e-01 -1.9175508618354797e-01</leafValues></_>
        <_>
          <internalNodes>
            0 -1 767 -1.2706557754427195e-03</internalNodes>
          <leafValues>
            4.0171432495117188e-01 -6.9596983492374420e-02</leafValues></_>
        <_>
          <internalNodes>
            0 -1 544 -2.5976784527301788e-03</internalNodes>
          <leafValues>
            -2.6842287182807922e-01 9.7828269004821777e-02</leafValues></_>
        <_>
          <internalNodes>
            0 -1 8 -5.5878646671772003e-03</internalNodes>
          <leafValues>
            -6.8385076522827148e-01 3.3642672002315521e-02</leafValues></_>
        <_>
          <internalNodes>
            0 -1 175 -3.1924073118716478e-03</internalNodes>
          <leafValues>
            2.6655587553977966e-01 -8.9429363608360291e-02</leafValues></_>
        <_>
          <internalNodes>
            0 -1 514 -1.0561532690189779e-04</internalNodes>
          <leafValues>
            -1.8601314723491669e-01 1.4010475575923920e-01</leafValues></_></weakClassifiers></_>
    <!-- stage 9 -->
    <_>
      <maxWeakCount>68</maxWeakCount>
      <stageThreshold>-1.2260245084762573e+00</stageThreshold>
      <weakClassifiers>
        <_>
          <internalNodes>
            0 -1 182 -5.3212106227874756e-02</internalNodes>
          <leafValues>
            -7.7511958777904510e-02 -5.5518674850463867e-01</leafValues></_>
        <_>
          <internalNodes>
            0 -1 280 3.2435715198516846e-02</internalNodes>
          <leafValues>
            -2.4059015512466431e-01 2.1256762742996216e-01</leafValues></_>
        <_>
          <internalNodes>
            0 -1 403 5.5797893553972244e-02</internalNodes>
          <leafValues>
            -7.0253461599349976e-02 5.8987200260162354e-01</leafValues></_>
        <_>
          <internalNodes>
            0 -1 4 7.8638885170221329e-03</internalNodes>
          <leafValues>
            -1.8478803336620331e-01 1.9197396934032440e-01</leafValues></_>
        <_>
          <internalNodes>
            0 -1 507 1.3155328342691064e-03</internalNodes>
          <leafValues>
            1.5596178174018860e-01 -2.5946015119552612e-01</leafValues></_>
        <_>
          <internalNodes>
            0 -1 359 -3.7870369851589203e-04</internalNodes>
          <leafValues>
            -2.8470510244369507e-01 9.5814660191535950e-02</leafValues></_>
        <_>
          <internalNodes>
            0 -1 801 1.6920436173677444e-02</internalNodes>
          <leafValues>
            -8.6437359452247620e-02 2.9419034719467163e-01</leafValues></_>
        <_>
          <internalNodes>
            0 -1 122 -3.4983399510383606e-01</internalNodes>
          <leafValues>
            -3.8924202322959900e-01 6.9811396300792694e-02</leafValues></_>
        <_>
          <internalNodes>
            0 -1 681 -1.4655221020802855e-03</internalNodes>
          <leafValues>
            2.9943346977233887e-01 -1.0243413597345352e-01</leafValues></_>
        <_>
          <internalNodes>
            0 -1 600 1.6880154144018888e-03</internalNodes>
          <leafValues>
            1.3130393624305725e-01 -2.2947511076927185e-01</leafValues></_>
        <_>
          <internalNodes>
            0 -1 431 -7.7752355718985200e-04</internalNodes>
          <leafValues>
            -2.3079447448253632e-01 1.4735840260982513e-01</leafValues></_>
        <_>
          <internalNodes>
            0 -1 500 -1.0226363316178322e-02</internalNodes>
          <leafValues>
            3.5533675551414490e-01 -1.0512234270572662e-01</leafValues></_>
        <_>
          <internalNodes>
            0 -1 490 4.6879070578143001e-04</internalNodes>
          <leafValues>
            1.5083898603916168e-01 -2.0118437707424164e-01</leafValues></_>
        <_>
          <internalNodes>
            0 -1 707 -8.9789163321256638e-03</internalNodes>
          <leafValues>
            1.8028557300567627e-01 -1.7098519206047058e-01</leafValues></_>
        <_>
          <internalNodes>
            0 -1 695 2.5630101561546326e-02</internalNodes>
          <leafValues>
            -1.2580741941928864e-01 3.4777605533599854e-01</leafValues></_>
        <_>
          <internalNodes>
            0 -1 342 -4.9223739188164473e-04</internalNodes>
          <leafValues>
            2.7872809767723083e-01 -9.3144267797470093e-02</leafValues></_>
        <_>
          <internalNodes>
            0 -1 342 3.2033567549660802e-04</internalNodes>
          <leafValues>
            -1.2765946984291077e-01 2.7630257606506348e-01</leafValues></_>
        <_>
          <internalNodes>
            0 -1 311 -1.4102356508374214e-03</internalNodes>
          <leafValues>
            2.8042890131473541e-02 -7.9151409864425659e-01</leafValues></_>
        <_>
          <internalNodes>
            0 -1 673 -1.6321853036060929e-04</internalNodes>
          <leafValues>
            1.2095519900321960e-01 -2.1873612701892853e-01</leafValues></_>
        <_>
          <internalNodes>
            0 -1 472 1.2781115248799324e-02</internalNodes>
          <leafValues>
            3.2619830220937729e-02 -7.6609456539154053e-01</leafValues></_>
        <_>
          <internalNodes>
            0 -1 292 -1.5613234043121338e-01</internalNodes>
          <leafValues>
            7.4288195371627808e-01 -4.1518282145261765e-02</leafValues></_>
        <_>
          <internalNodes>
            0 -1 143 -5.5701993405818939e-03</internalNodes>
          <leafValues>
            4.5149561762809753e-01 -5.4773129522800446e-02</leafValues></_>
        <_>
          <internalNodes>
            0 -1 58 2.6186916232109070e-01</internalNodes>
          <leafValues>
            -6.8238861858844757e-02 3.5193637013435364e-01</leafValues></_>
        <_>
          <internalNodes>
            0 -1 419 -5.6245159357786179e-03</internalNodes>
          <leafValues>
            3.8234055042266846e-01 -7.2694830596446991e-02</leafValues></_>
        <_>
          <internalNodes>
            0 -1 660 2.0481098443269730e-02</internalNodes>
          <leafValues>
            -1.3302452862262726e-01 2.1645562350749969e-01</leafValues></_>
        <_>
          <internalNodes>
            0 -1 580 3.4676231443881989e-02</internalNodes>
          <leafValues>
            -8.0662898719310760e-02 4.2027580738067627e-01</leafValues></_>
        <_>
          <internalNodes>
            0 -1 806 -3.5282457247376442e-03</internalNodes>
          <leafValues>
            3.0446884036064148e-01 -1.0050614923238754e-01</leafValues></_>
        <_>
          <internalNodes>
            0 -1 496 -6.0459895757958293e-04</internalNodes>
          <leafValues>
            3.0482193827629089e-01 -8.4262587130069733e-02</leafValues></_>
        <_>
          <internalNodes>
            0 -1 481 1.1653983965516090e-03</internalNodes>
          <leafValues>
            1.2971103191375732e-01 -2.1032957732677460e-01</leafValues></_>
        <_>
          <internalNodes>
            0 -1 46 7.1370005607604980e-03</internalNodes>
          <leafValues>
            -1.0821849852800369e-01 2.8133261203765869e-01</leafValues></_>
        <_>
          <internalNodes>
            0 -1 24 -5.3735189139842987e-02</internalNodes>
          <leafValues>
            2.7338920161128044e-02 -9.1058194637298584e-01</leafValues></_>
        <_>
          <internalNodes>
            0 -1 623 -2.2448967210948467e-03</internalNodes>
          <leafValues>
            3.3303254842758179e-01 -9.1324396431446075e-02</leafValues></_>
        <_>
          <internalNodes>
            0 -1 678 4.7785714268684387e-03</internalNodes>
          <leafValues>
            -1.0111955553293228e-01 2.7877488732337952e-01</leafValues></_>
        <_>
          <internalNodes>
            0 -1 152 -1.7868731170892715e-02</internalNodes>
          <leafValues>
            -8.1375068426132202e-01 4.5142456889152527e-02</leafValues></_>
        <_>
          <internalNodes>
            0 -1 536 1.8223613733425736e-03</internalNodes>
          <leafValues>
            -1.9687101244926453e-01 1.4470225572586060e-01</leafValues></_>
        <_>
          <internalNodes>
            0 -1 294 -2.5588113069534302e-01</internalNodes>
          <leafValues>
            -6.4585395157337189e-02 5.6342709064483643e-01</leafValues></_>
        <_>
          <internalNodes>
            0 -1 14 -2.8272485360503197e-02</internalNodes>
          <leafValues>
            -5.4692357778549194e-01 5.4630246013402939e-02</leafValues></_>
        <_>
          <internalNodes>
            0 -1 649 3.4838530700653791e-04</internalNodes>
          <leafValues>
            1.0066388547420502e-01 -2.5238245725631714e-01</leafValues></_>
        <_>
          <internalNodes>
            0 -1 517 4.3087825179100037e-02</internalNodes>
          <leafValues>
            -8.2937113940715790e-02 3.7722152471542358e-01</leafValues></_>
        <_>
          <internalNodes>
            0 -1 464 -2.6154289953410625e-03</internalNodes>
          <leafValues>
            1.6405797004699707e-01 -2.0558787882328033e-01</leafValues></_>
        <_>
          <internalNodes>
            0 -1 567 4.0110144764184952e-03</internalNodes>
          <leafValues>
            -7.7901348471641541e-02 4.0867540240287781e-01</leafValues></_>
        <_>
          <internalNodes>
            0 -1 159 2.9545675963163376e-02</internalNodes>
          <leafValues>
            -1.4689253270626068e-01 2.1230596303939819e-01</leafValues></_>
        <_>
          <internalNodes>
            0 -1 786 1.4542547054588795e-02</internalNodes>
          <leafValues>
            2.8960313647985458e-02 -8.6096155643463135e-01</leafValues></_>
        <_>
          <internalNodes>
            0 -1 212 -4.6196286566555500e-03</internalNodes>
          <leafValues>
            5.0906276702880859e-01 -6.1108205467462540e-02</leafValues></_>
        <_>
          <internalNodes>
            0 -1 432 1.0000313632190228e-03</internalNodes>
          <leafValues>
            8.7008103728294373e-02 -3.4098249673843384e-01</leafValues></_>
        <_>
          <internalNodes>
            0 -1 689 -2.1125715225934982e-02</internalNodes>
          <leafValues>
            2.1557536721229553e-01 -1.3231480121612549e-01</leafValues></_>
        <_>
          <internalNodes>
            0 -1 54 -7.6630339026451111e-03</internalNodes>
          <leafValues>
            4.7335769981145859e-02 -5.0350642204284668e-01</leafValues></_>
        <_>
          <internalNodes>
            0 -1 594 -9.2260707169771194e-03</internalNodes>
          <leafValues>
            3.0528870224952698e-01 -8.6240433156490326e-02</leafValues></_>
        <_>
          <internalNodes>
            0 -1 113 -3.1074125319719315e-02</internalNodes>
          <leafValues>
            -6.5272939205169678e-01 4.4805716723203659e-02</leafValues></_>
        <_>
          <internalNodes>
            0 -1 372 -6.8770679645240307e-03</internalNodes>
          <leafValues>
            -3.0916750431060791e-01 7.5514025986194611e-02</leafValues></_>
        <_>
          <internalNodes>
            0 -1 272 2.0312071137595922e-04</internalNodes>
          <leafValues>
            -1.0708697140216827e-01 2.2968575358390808e-01</leafValues></_>
        <_>
          <internalNodes>
            0 -1 575 8.8555123656988144e-03</internalNodes>
          <leafValues>
            3.3592000603675842e-02 -8.0416172742843628e-01</leafValues></_>
        <_>
          <internalNodes>
            0 -1 420 2.2954219020903111e-03</internalNodes>
          <leafValues>
            7.0924960076808929e-02 -3.2716476917266846e-01</leafValues></_>
        <_>
          <internalNodes>
            0 -1 70 -2.1521050482988358e-02</internalNodes>
          <leafValues>
            -5.0252592563629150e-01 5.2105490118265152e-02</leafValues></_>
        <_>
          <internalNodes>
            0 -1 328 1.3008059468120337e-03</internalNodes>
          <leafValues>
            1.3761208951473236e-01 -2.0072861015796661e-01</leafValues></_>
        <_>
          <internalNodes>
            0 -1 408 7.8729493543505669e-03</internalNodes>
          <leafValues>
            -1.5350867807865143e-01 1.8396282196044922e-01</leafValues></_>
        <_>
          <internalNodes>
            0 -1 573 -2.0364020019769669e-04</internalNodes>
          <leafValues>
            -1.7523734271526337e-01 1.5883389115333557e-01</leafValues></_>
        <_>
          <internalNodes>
            0 -1 753 -3.9585046470165253e-02</internalNodes>
          <leafValues>
            -9.0762704610824585e-01 3.0846351757645607e-02</leafValues></_>
        <_>
          <internalNodes>
            0 -1 302 3.2831674907356501e-03</internalNodes>
          <leafValues>
            -6.1729397624731064e-02 4.4638887047767639e-01</leafValues></_>
        <_>
          <internalNodes>
            0 -1 6 6.1908084899187088e-04</internalNodes>
          <leafValues>
            1.1101774126291275e-01 -2.2448173165321350e-01</leafValues></_>
        <_>
          <internalNodes>
            0 -1 35 2.3966560140252113e-02</internalNodes>
          <leafValues>
            6.2226444482803345e-02 -4.0441337227821350e-01</leafValues></_>
        <_>
          <internalNodes>
            0 -1 12 1.2549403309822083e-01</internalNodes>
          <leafValues>
            -9.1990195214748383e-02 3.1388917565345764e-01</leafValues></_>
        <_>
          <internalNodes>
            0 -1 777 -9.0052722953259945e-04</internalNodes>
          <leafValues>
            3.8165518641471863e-01 -7.4715740978717804e-02</leafValues></_>
        <_>
          <internalNodes>
            0 -1 483 -8.3687022328376770e-02</internalNodes>
          <leafValues>
            7.4773412942886353e-01 -3.3591061830520630e-02</leafValues></_>
        <_>
          <internalNodes>
            0 -1 265 -4.2342483997344971e-02</internalNodes>
          <leafValues>
            1.6555856168270111e-01 -1.6298519074916840e-01</leafValues></_>
        <_>
          <internalNodes>
            0 -1 534 -4.6259341761469841e-03</internalNodes>
          <leafValues>
            3.1254056096076965e-01 -1.1152034997940063e-01</leafValues></_>
        <_>
          <internalNodes>
            0 -1 633 5.5671646259725094e-04</internalNodes>
          <leafValues>
            -2.2023388743400574e-01 1.2617842853069305e-01</leafValues></_>
        <_>
          <internalNodes>
            0 -1 32 -3.2564222812652588e-02</internalNodes>
          <leafValues>
            2.4812452495098114e-01 -1.2481512129306793e-01</leafValues></_></weakClassifiers></_>
    <!-- stage 10 -->
    <_>
      <maxWeakCount>63</maxWeakCount>
      <stageThreshold>-1.2340840101242065e+00</stageThreshold>
      <weakClassifiers>
        <_>
          <internalNodes>
            0 -1 283 1.1572211980819702e-02</internalNodes>
          <leafValues>
            -5.2950561046600342e-01 -8.6345382034778595e-02</leafValues></_>
        <_>
          <internalNodes>
            0 -1 125 -5.9945918619632721e-03</internalNodes>
          <leafValues>
            1.5674258768558502e-01 -2.9546952247619629e-01</leafValues></_>
        <_>
          <internalNodes>
            0 -1 674 -1.8229145556688309e-02</internalNodes>
          <leafValues>
            2.6508581638336182e-01 -1.2655897438526154e-01</leafValues></_>
        <_>
          <internalNodes>
            0 -1 40 9.4257563352584839e-02</internalNodes>
          <leafValues>
            -1.6031989455223083e-01 2.0179863274097443e-01</leafValues></_>
        <_>
          <internalNodes>
            0 -1 223 1.4409368159249425e-03</internalNodes>
          <leafValues>
            -8.0138362944126129e-02 3.2717224955558777e-01</leafValues></_>
        <_>
          <internalNodes>
            0 -1 344 4.1021890938282013e-03</internalNodes>
          <leafValues>
            -8.9986406266689301e-02 4.1600084304809570e-01</leafValues></_>
        <_>
          <internalNodes>
            0 -1 795 -6.0108536854386330e-03</internalNodes>
          <leafValues>
            2.2636772692203522e-01 -1.6864913702011108e-01</leafValues></_>
        <_>
          <internalNodes>
            0 -1 779 -9.1962758451700211e-03</internalNodes>
          <leafValues>
            2.5113275274634361e-02 -8.9045113325119019e-01</leafValues></_>
        <_>
          <internalNodes>
            0 -1 627 -9.4344280660152435e-03</internalNodes>
          <leafValues>
            -2.7153840661048889e-01 1.0893557965755463e-01</leafValues></_>
        <_>
          <internalNodes>
            0 -1 565 3.5322879557497799e-04</internalNodes>
          <leafValues>
            1.2065032869577408e-01 -2.4989505112171173e-01</leafValues></_>
        <_>
          <internalNodes>
            0 -1 584 -2.1605365909636021e-03</internalNodes>
          <leafValues>
            2.0853541791439056e-01 -1.5552528202533722e-01</leafValues></_>
        <_>
          <internalNodes>
            0 -1 383 -3.4010536037385464e-03</internalNodes>
          <leafValues>
            4.0711671113967896e-01 -8.6127839982509613e-02</leafValues></_>
        <_>
          <internalNodes>
            0 -1 219 -1.6156262159347534e-01</internalNodes>
          <leafValues>
            3.1895631551742554e-01 -7.9907640814781189e-02</leafValues></_>
        <_>
          <internalNodes>
            0 -1 300 6.0962893068790436e-02</internalNodes>
          <leafValues>
            -1.1082427203655243e-01 3.3050855994224548e-01</leafValues></_>
        <_>
          <internalNodes>
            0 -1 357 -2.0456837490200996e-02</internalNodes>
          <leafValues>
            2.4000710248947144e-01 -1.4519670605659485e-01</leafValues></_>
        <_>
          <internalNodes>
            0 -1 155 -8.5285659879446030e-03</internalNodes>
          <leafValues>
            5.5970388650894165e-01 -4.8042953014373779e-02</leafValues></_>
        <_>
          <internalNodes>
            0 -1 154 -6.7162057384848595e-03</internalNodes>
          <leafValues>
            3.0705213546752930e-01 -1.0836755484342575e-01</leafValues></_>
        <_>
          <internalNodes>
            0 -1 142 -1.8850016931537539e-04</internalNodes>
          <leafValues>
            2.2891511023044586e-01 -1.3663183152675629e-01</leafValues></_>
        <_>
          <internalNodes>
            0 -1 792 1.8214767624158412e-04</internalNodes>
          <leafValues>
            -1.0466226935386658e-01 2.2923967242240906e-01</leafValues></_>
        <_>
          <internalNodes>
            0 -1 704 5.3015304729342461e-04</internalNodes>
          <leafValues>
            1.0735256969928741e-01 -2.3535263538360596e-01</leafValues></_>
        <_>
          <internalNodes>
            0 -1 62 7.5834570452570915e-05</internalNodes>
          <leafValues>
            -1.9496721029281616e-01 1.3983228802680969e-01</leafValues></_>
        <_>
          <internalNodes>
            0 -1 157 3.2767630182206631e-04</internalNodes>
          <leafValues>
            -1.3177968561649323e-01 2.0626337826251984e-01</leafValues></_>
        <_>
          <internalNodes>
            0 -1 248 -5.7736575603485107e-02</internalNodes>
          <leafValues>
            6.2563753128051758e-01 -4.2805336415767670e-02</leafValues></_>
        <_>
          <internalNodes>
            0 -1 688 1.1719313915818930e-03</internalNodes>
          <leafValues>
            -6.7303076386451721e-02 3.6698302626609802e-01</leafValues></_>
        <_>
          <internalNodes>
            0 -1 578 -1.0414991993457079e-03</internalNodes>
          <leafValues>
            -2.6456111669540405e-01 1.0139549523591995e-01</leafValues></_>
        <_>
          <internalNodes>
            0 -1 290 -2.2724890708923340e-01</internalNodes>
          <leafValues>
            7.3429262638092041e-01 -4.1708309203386307e-02</leafValues></_>
        <_>
          <internalNodes>
            0 -1 680 8.1309573724865913e-03</internalNodes>
          <leafValues>
            2.9968569055199623e-02 -8.6829352378845215e-01</leafValues></_>
        <_>
          <internalNodes>
            0 -1 765 -1.2344801798462868e-02</internalNodes>
          <leafValues>
            4.5238494873046875e-01 -6.4306356012821198e-02</leafValues></_>
        <_>
          <internalNodes>
            0 -1 761 1.2183809652924538e-02</internalNodes>
          <leafValues>
            -1.8188537657260895e-01 1.4516043663024902e-01</leafValues></_>
        <_>
          <internalNodes>
            0 -1 822 3.2909624278545380e-02</internalNodes>
          <leafValues>
            6.6970527172088623e-02 -4.4017341732978821e-01</leafValues></_>
        <_>
          <internalNodes>
            0 -1 721 -1.1955723166465759e-03</internalNodes>
          <leafValues>
            -3.1947997212409973e-01 7.4333168566226959e-02</leafValues></_>
        <_>
          <internalNodes>
            0 -1 744 9.6550127491354942e-03</internalNodes>
          <leafValues>
            -1.0078637301921844e-01 2.6099437475204468e-01</leafValues></_>
        <_>
          <internalNodes>
            0 -1 421 -2.8436349704861641e-02</internalNodes>
          <leafValues>
            8.6369979381561279e-01 -3.3611681312322617e-02</leafValues></_>
        <_>
          <internalNodes>
            0 -1 418 -1.2511739041656256e-03</internalNodes>
          <leafValues>
            -2.0890873670578003e-01 1.2628653645515442e-01</leafValues></_>
        <_>
          <internalNodes>
            0 -1 303 -8.7567903101444244e-03</internalNodes>
          <leafValues>
            1.6084679961204529e-01 -1.5587206184864044e-01</leafValues></_>
        <_>
          <internalNodes>
            0 -1 813 -1.0428531095385551e-03</internalNodes>
          <leafValues>
            3.7210613489151001e-01 -7.4721328914165497e-02</leafValues></_>
        <_>
          <internalNodes>
            0 -1 696 7.0463083684444427e-02</internalNodes>
          <leafValues>
            -4.5170918107032776e-02 5.6193494796752930e-01</leafValues></_>
        <_>
          <internalNodes>
            0 -1 513 -4.5655425637960434e-03</internalNodes>
          <leafValues>
            5.3153324127197266e-01 -4.3281622231006622e-02</leafValues></_>
        <_>
          <internalNodes>
            0 -1 364 8.6203617975115776e-03</internalNodes>
          <leafValues>
            5.4787442088127136e-02 -5.1705491542816162e-01</leafValues></_>
        <_>
          <internalNodes>
            0 -1 754 1.0024088434875011e-02</internalNodes>
          <leafValues>
            3.9742492139339447e-02 -5.2654165029525757e-01</leafValues></_>
        <_>
          <internalNodes>
            0 -1 293 4.7508836723864079e-03</internalNodes>
          <leafValues>
            4.6454079449176788e-02 -4.6568080782890320e-01</leafValues></_>
        <_>
          <internalNodes>
            0 -1 445 4.4855801388621330e-03</internalNodes>
          <leafValues>
            -8.6457736790180206e-02 3.1738930940628052e-01</leafValues></_>
        <_>
          <internalNodes>
            0 -1 498 -9.2288982123136520e-03</internalNodes>
          <leafValues>
            -6.7226749658584595e-01 4.0491282939910889e-02</leafValues></_>
        <_>
          <internalNodes>
            0 -1 683 3.0924836173653603e-03</internalNodes>
          <leafValues>
            -7.1755714714527130e-02 3.9016771316528320e-01</leafValues></_>
        <_>
          <internalNodes>
            0 -1 551 8.5030291229486465e-03</internalNodes>
          <leafValues>
            -6.1421465128660202e-02 4.3962034583091736e-01</leafValues></_>
        <_>
          <internalNodes>
            0 -1 612 2.8382125310599804e-04</internalNodes>
          <leafValues>
            1.2277212738990784e-01 -2.0378792285919189e-01</leafValues></_>
        <_>
          <internalNodes>
            0 -1 479 1.4319858746603131e-03</internalNodes>
          <leafValues>
            9.9144510924816132e-02 -2.3103137314319611e-01</leafValues></_>
        <_>
          <internalNodes>
            0 -1 797 3.0819326639175415e-04</internalNodes>
          <leafValues>
            -1.0416374355554581e-01 2.4320346117019653e-01</leafValues></_>
        <_>
          <internalNodes>
            0 -1 713 -1.4805438695475459e-04</internalNodes>
          <leafValues>
            1.3416777551174164e-01 -1.9820010662078857e-01</leafValues></_>
        <_>
          <internalNodes>
            0 -1 735 1.2886959666502662e-05</internalNodes>
          <leafValues>
            -1.3044726848602295e-01 2.0959174633026123e-01</leafValues></_>
        <_>
          <internalNodes>
            0 -1 119 -9.4923074357211590e-04</internalNodes>
          <leafValues>
            -2.2142006456851959e-01 1.1788449436426163e-01</leafValues></_>
        <_>
          <internalNodes>
            0 -1 495 -9.9917054176330566e-03</internalNodes>
          <leafValues>
            3.8054075092077255e-02 -6.6830390691757202e-01</leafValues></_>
        <_>
          <internalNodes>
            0 -1 120 4.5145731419324875e-03</internalNodes>
          <leafValues>
            5.3068324923515320e-02 -4.2945590615272522e-01</leafValues></_>
        <_>
          <internalNodes>
            0 -1 268 -1.1153348721563816e-02</internalNodes>
          <leafValues>
            -4.0384405851364136e-01 5.7476140558719635e-02</leafValues></_>
        <_>
          <internalNodes>
            0 -1 729 -6.5499730408191681e-04</internalNodes>
          <leafValues>
            3.3655300736427307e-01 -7.5438268482685089e-02</leafValues></_>
        <_>
          <internalNodes>
            0 -1 199 2.9860723018646240e-01</internalNodes>
          <leafValues>
            -5.2317421883344650e-02 4.5022818446159363e-01</leafValues></_>
        <_>
          <internalNodes>
            0 -1 309 -1.1955772526562214e-02</internalNodes>
          <leafValues>
            2.4150699377059937e-01 -1.0193107277154922e-01</leafValues></_>
        <_>
          <internalNodes>
            0 -1 453 4.1056983172893524e-02</internalNodes>
          <leafValues>
            -2.4029908701777458e-02 9.5971453189849854e-01</leafValues></_>
        <_>
          <internalNodes>
            0 -1 473 4.1588307358324528e-03</internalNodes>
          <leafValues>
            -3.8859624415636063e-02 4.8336446285247803e-01</leafValues></_>
        <_>
          <internalNodes>
            0 -1 137 2.4619039148092270e-02</internalNodes>
          <leafValues>
            -1.2749551236629486e-01 1.9170838594436646e-01</leafValues></_>
        <_>
          <internalNodes>
            0 -1 737 1.2331401929259300e-02</internalNodes>
          <leafValues>
            -8.6009263992309570e-02 2.9077333211898804e-01</leafValues></_>
        <_>
          <internalNodes>
            0 -1 757 -1.9526121905073524e-03</internalNodes>
          <leafValues>
            1.7967022955417633e-01 -1.7388461530208588e-01</leafValues></_>
        <_>
          <internalNodes>
            0 -1 759 9.0379227185621858e-04</internalNodes>
          <leafValues>
            5.6965246796607971e-02 -4.1124781966209412e-01</leafValues></_></weakClassifiers></_>
    <!-- stage 11 -->
    <_>
      <maxWeakCount>66</maxWeakCount>
      <stageThreshold>-1.1845386028289795e+00</stageThreshold>
      <weakClassifiers>
        <_>
          <internalNodes>
            0 -1 134 8.2856640219688416e-02</internalNodes>
          <leafValues>
            -5.1421982049942017e-01 -8.5353001952171326e-02</leafValues></_>
        <_>
          <internalNodes>
            0 -1 710 -1.3164479285478592e-02</internalNodes>
          <leafValues>
            1.5707229077816010e-01 -2.1404378116130829e-01</leafValues></_>
        <_>
          <internalNodes>
            0 -1 365 -6.0367182595655322e-04</internalNodes>
          <leafValues>
            -2.8367364406585693e-01 1.0451976209878922e-01</leafValues></_>
        <_>
          <internalNodes>
            0 -1 658 7.1382225723937154e-04</internalNodes>
          <leafValues>
            -6.4153768122196198e-02 3.4663596749305725e-01</leafValues></_>
        <_>
          <internalNodes>
            0 -1 85 1.0347064584493637e-02</internalNodes>
          <leafValues>
            -1.4270779490470886e-01 2.2309678792953491e-01</leafValues></_>
        <_>
          <internalNodes>
            0 -1 390 -2.8577584773302078e-02</internalNodes>
          <leafValues>
            -5.5262427777051926e-02 4.5977622270584106e-01</leafValues></_>
        <_>
          <internalNodes>
            0 -1 168 -8.3098709583282471e-02</internalNodes>
          <leafValues>
            1.8529617786407471e-01 -1.5610800683498383e-01</leafValues></_>
        <_>
          <internalNodes>
            0 -1 582 -1.0507742408663034e-03</internalNodes>
          <leafValues>
